{"learner":{"attributes":{},"feature_names":["Cementitious material","Coarse aggregate","Fine aggregate","Water dosage","Superplastizer","Fiber volume","Aspect ratio"],"feature_types":["float","float","float","float","float","float","float"],"gradient_booster":{"model":{"gbtree_model_param":{"num_parallel_tree":"1","num_trees":"500"},"iteration_indptr":[0,1,2,3,4,5,6,7,8,9,10,11,12,13,14,15,16,17,18,19,20,21,22,23,24,25,26,27,28,29,30,31,32,33,34,35,36,37,38,39,40,41,42,43,44,45,46,47,48,49,50,51,52,53,54,55,56,57,58,59,60,61,62,63,64,65,66,67,68,69,70,71,72,73,74,75,76,77,78,79,80,81,82,83,84,85,86,87,88,89,90,91,92,93,94,95,96,97,98,99,100,101,102,103,104,105,106,107,108,109,110,111,112,113,114,115,116,117,118,119,120,121,122,123,124,125,126,127,128,129,130,131,132,133,134,135,136,137,138,139,140,141,142,143,144,145,146,147,148,149,150,151,152,153,154,155,156,157,158,159,160,161,162,163,164,165,166,167,168,169,170,171,172,173,174,175,176,177,178,179,180,181,182,183,184,185,186,187,188,189,190,191,192,193,194,195,196,197,198,199,200,201,202,203,204,205,206,207,208,209,210,211,212,213,214,215,216,217,218,219,220,221,222,223,224,225,226,227,228,229,230,231,232,233,234,235,236,237,238,239,240,241,242,243,244,245,246,247,248,249,250,251,252,253,254,255,256,257,258,259,260,261,262,263,264,265,266,267,268,269,270,271,272,273,274,275,276,277,278,279,280,281,282,283,284,285,286,287,288,289,290,291,292,293,294,295,296,297,298,299,300,301,302,303,304,305,306,307,308,309,310,311,312,313,314,315,316,317,318,319,320,321,322,323,324,325,326,327,328,329,330,331,332,333,334,335,336,337,338,339,340,341,342,343,344,345,346,347,348,349,350,351,352,353,354,355,356,357,358,359,360,361,362,363,364,365,366,367,368,369,370,371,372,373,374,375,376,377,378,379,380,381,382,383,384,385,386,387,388,389,390,391,392,393,394,395,396,397,398,399,400,401,402,403,404,405,406,407,408,409,410,411,412,413,414,415,416,417,418,419,420,421,422,423,424,425,426,427,428,429,430,431,432,433,434,435,436,437,438,439,440,441,442,443,444,445,446,447,448,449,450,451,452,453,454,455,456,457,458,459,460,461,462,463,464,465,466,467,468,469,470,471,472,473,474,475,476,477,478,479,480,481,482,483,484,485,486,487,488,489,490,491,492,493,494,495,496,497,498,499,500],"tree_info":[0,0,0,0,0,0,0,0,0,0,0,0,0,0,0,0,0,0,0,0,0,0,0,0,0,0,0,0,0,0,0,0,0,0,0,0,0,0,0,0,0,0,0,0,0,0,0,0,0,0,0,0,0,0,0,0,0,0,0,0,0,0,0,0,0,0,0,0,0,0,0,0,0,0,0,0,0,0,0,0,0,0,0,0,0,0,0,0,0,0,0,0,0,0,0,0,0,0,0,0,0,0,0,0,0,0,0,0,0,0,0,0,0,0,0,0,0,0,0,0,0,0,0,0,0,0,0,0,0,0,0,0,0,0,0,0,0,0,0,0,0,0,0,0,0,0,0,0,0,0,0,0,0,0,0,0,0,0,0,0,0,0,0,0,0,0,0,0,0,0,0,0,0,0,0,0,0,0,0,0,0,0,0,0,0,0,0,0,0,0,0,0,0,0,0,0,0,0,0,0,0,0,0,0,0,0,0,0,0,0,0,0,0,0,0,0,0,0,0,0,0,0,0,0,0,0,0,0,0,0,0,0,0,0,0,0,0,0,0,0,0,0,0,0,0,0,0,0,0,0,0,0,0,0,0,0,0,0,0,0,0,0,0,0,0,0,0,0,0,0,0,0,0,0,0,0,0,0,0,0,0,0,0,0,0,0,0,0,0,0,0,0,0,0,0,0,0,0,0,0,0,0,0,0,0,0,0,0,0,0,0,0,0,0,0,0,0,0,0,0,0,0,0,0,0,0,0,0,0,0,0,0,0,0,0,0,0,0,0,0,0,0,0,0,0,0,0,0,0,0,0,0,0,0,0,0,0,0,0,0,0,0,0,0,0,0,0,0,0,0,0,0,0,0,0,0,0,0,0,0,0,0,0,0,0,0,0,0,0,0,0,0,0,0,0,0,0,0,0,0,0,0,0,0,0,0,0,0,0,0,0,0,0,0,0,0,0,0,0,0,0,0,0,0,0,0,0,0,0,0,0,0,0,0,0,0,0,0,0,0,0,0,0,0,0,0,0,0,0,0,0,0,0,0,0,0,0,0,0,0,0,0,0,0,0,0,0,0,0,0,0,0,0,0,0,0,0,0,0,0,0,0,0,0,0,0,0,0,0,0,0,0,0,0,0,0,0,0,0,0],"trees":[{"base_weights":[7.610335E-3,-1.3958707E0,1.0818739E0,-7.586263E-1,-2.0036368E0,2.3019907E0,1.3987054E-1,1.0713125E0,-1.1300784E0,-4.956319E-1,-2.283707E0,1.9252174E0,5.1716237E0,3.9692006E-1,2.5276965E-2,1.7551761E0,-1.3558994E-1,-1.6299521E0,-2.8739288E-1,-2.0371587E0,5.450947E-1,-1.9384445E0,-1.6752636E-1,1.0489905E0,3.0953457E0,5.627743E0,-5.7059962E-2,-6.190466E-1,1.4893651E0,1.3539207E-1,7.900236E-1,-4.789707E-2,-8.772944E-2,-7.476142E-1,1.339514E-1,-1.2584995E-1,-4.9695943E-2,5.4332566E-2,-2.7098678E-2,-1.2475258E0,-2.2381327E0,1.611052E0,-1.21955775E-1,2.6235473E-1,2.336376E0,2.6293726E0,3.4984553E-1,9.467024E-1,-1.1285732E0,3.1936164E0,2.3136131E-1,-4.3099686E-3,4.5239463E-2,-4.334551E-2,3.6440033E-2,1.6122421E-2,-1.2292437E-2,-1.6809968E-2,1.1114951E-3,-8.5932784E-2,7.430405E-2,-8.805196E-2,-1.4280763E-1,9.3146764E-2,-6.3549355E-3,-2.2807715E-2,2.0436434E-2,1.6150052E-2,1.280615E-1,-0E0,1.5206672E-1,1.0786831E-1,3.360821E-2,-4.2184237E-2,-1.3099025E-1,7.113757E-2,2.6318175E-1,6.268033E-2,-6.1691303E-2],"categories":[],"categories_nodes":[],"categories_segments":[],"categories_sizes":[],"default_left":[0,0,0,0,0,0,0,0,0,0,0,0,0,0,0,0,0,0,0,0,0,0,0,0,0,0,0,0,0,0,0,0,0,0,0,0,0,0,0,0,0,0,0,0,0,0,0,0,0,0,0,0,0,0,0,0,0,0,0,0,0,0,0,0,0,0,0,0,0,0,0,0,0,0,0,0,0,0,0],"id":0,"left_children":[1,3,5,7,9,11,13,15,17,19,21,23,25,-1,27,29,-1,31,33,35,37,39,-1,41,43,45,-1,47,49,-1,51,-1,-1,53,55,-1,-1,-1,57,59,61,63,65,-1,67,69,-1,71,73,75,77,-1,-1,-1,-1,-1,-1,-1,-1,-1,-1,-1,-1,-1,-1,-1,-1,-1,-1,-1,-1,-1,-1,-1,-1,-1,-1,-1,-1],"loss_changes":[9.8444183E2,1.0725604E2,4.242066E2,9.639117E1,5.8852295E1,1.619878E2,1.8507913E2,6.656386E1,4.8241028E1,4.0061455E1,3.6486694E1,1.4315259E2,5.9597534E1,0E0,1.9739917E2,1.6120193E1,0E0,3.6197052E0,9.010267E0,1.4509163E0,4.995439E0,1.56258545E1,0E0,5.5927277E1,8.508569E1,4.8504272E1,0E0,1.1680263E2,1.354467E2,0E0,1.530294E0,0E0,0E0,4.5481043E0,1.8204424E0,0E0,0E0,0E0,2.2364451E-1,4.2548237E1,1.2455658E1,2.5712738E1,5.1665816E0,0E0,1.9585083E1,7.1030884E0,0E0,9.666477E0,4.3482468E1,8.947977E1,5.8468327E1,0E0,0E0,0E0,0E0,0E0,0E0,0E0,0E0,0E0,0E0,0E0,0E0,0E0,0E0,0E0,0E0,0E0,0E0,0E0,0E0,0E0,0E0,0E0,0E0,0E0,0E0,0E0,0E0],"parents":[2147483647,0,0,1,1,2,2,3,3,4,4,5,5,6,6,7,7,8,8,9,9,10,10,11,11,12,12,14,14,15,15,17,17,18,18,19,19,20,20,21,21,23,23,24,24,25,25,27,27,28,28,30,30,33,33,34,34,38,38,39,39,40,40,41,41,42,42,44,44,45,45,47,47,48,48,49,49,50,50],"right_children":[2,4,6,8,10,12,14,16,18,20,22,24,26,-1,28,30,-1,32,34,36,38,40,-1,42,44,46,-1,48,50,-1,52,-1,-1,54,56,-1,-1,-1,58,60,62,64,66,-1,68,70,-1,72,74,76,78,-1,-1,-1,-1,-1,-1,-1,-1,-1,-1,-1,-1,-1,-1,-1,-1,-1,-1,-1,-1,-1,-1,-1,-1,-1,-1,-1,-1],"split_conditions":[6.6E-1,1.703E2,1.718E2,8.751E2,6.513E2,1.648E2,5.9E2,9.07E2,4E0,1.154E3,1.111E3,1.01E0,8.58E2,3.9692006E-1,7.64E2,8.444E2,-1.3558994E-1,1.376E2,7.502E2,1.116E3,3E-1,1.782E2,-1.6752636E-1,1.06E3,1.376E2,7E-1,-5.7059962E-2,1.74E2,8.47E2,1.3539207E-1,1.3E0,-4.789707E-2,-8.772944E-2,1.1433E3,1.56E2,-1.2584995E-1,-4.9695943E-2,5.4332566E-2,1.1948E3,1.772E2,9.1E-1,9.016E2,1.1E3,2.6235473E-1,9.82E2,8.497E2,3.4984553E-1,1.065E3,4E-2,8.41E2,1.999E2,-4.3099686E-3,4.5239463E-2,-4.334551E-2,3.6440033E-2,1.6122421E-2,-1.2292437E-2,-1.6809968E-2,1.1114951E-3,-8.5932784E-2,7.430405E-2,-8.805196E-2,-1.4280763E-1,9.3146764E-2,-6.3549355E-3,-2.2807715E-2,2.0436434E-2,1.6150052E-2,1.280615E-1,-0E0,1.5206672E-1,1.0786831E-1,3.360821E-2,-4.2184237E-2,-1.3099025E-1,7.113757E-2,2.6318175E-1,6.268033E-2,-6.1691303E-2],"split_indices":[5,3,3,1,2,3,2,2,4,1,1,5,1,0,2,2,0,3,2,1,5,3,0,1,3,5,0,3,2,0,4,0,0,1,3,0,0,0,1,3,4,2,1,0,1,1,0,1,4,2,3,0,0,0,0,0,0,0,0,0,0,0,0,0,0,0,0,0,0,0,0,0,0,0,0,0,0,0,0],"split_type":[0,0,0,0,0,0,0,0,0,0,0,0,0,0,0,0,0,0,0,0,0,0,0,0,0,0,0,0,0,0,0,0,0,0,0,0,0,0,0,0,0,0,0,0,0,0,0,0,0,0,0,0,0,0,0,0,0,0,0,0,0,0,0,0,0,0,0,0,0,0,0,0,0,0,0,0,0,0,0],"sum_hessian":[6.51E2,2.82E2,3.69E2,1.39E2,1.43E2,1.6E2,2.09E2,2.3E1,1.16E2,2.3E1,1.2E2,1.43E2,1.7E1,2E0,2.07E2,2E1,3E0,7.2E1,4.4E1,9E0,1.4E1,9.3E1,2.7E1,8.3E1,6E1,1.6E1,1E0,1.44E2,6.3E1,9E0,1.1E1,1.3E1,5.9E1,2.1E1,2.3E1,5E0,4E0,7E0,7E0,3E1,6.3E1,5.6E1,2.7E1,1.4E1,4.6E1,6E0,1E1,3.5E1,1.09E2,2.6E1,3.7E1,1E0,1E1,2E1,1E0,1.6E1,7E0,1E0,6E0,2.6E1,4E0,3.8E1,2.5E1,4.9E1,7E0,1.7E1,1E1,5E0,4.1E1,1E0,5E0,5E0,3E1,9.3E1,1.6E1,1.5E1,1.1E1,2.2E1,1.5E1],"tree_param":{"num_deleted":"0","num_feature":"7","num_nodes":"79","size_leaf_vector":"1"}},{"base_weights":[4.416605E-2,-1.2909806E0,1.0710579E0,-2.0765715E0,-8.9807975E-1,2.0649683E0,-3.0722292E-2,-1.6299992E0,-1.4675772E-1,-2.804334E0,-6.5266657E-1,2.8700676E0,5.6206745E-1,4.5119314E0,-2.5126752E-1,-1.7373741E0,-3.185624E-2,-1.3352365E0,-1.71104E-1,-9.438311E-1,2.9515582E-1,5.9104323E-1,3.4952493E0,1.2334076E0,-1.2184101E0,2.2268213E-1,4.3352553E-1,-5.41597E-1,1.3958546E0,-2.009172E0,-1.3599181E0,-8.091104E-2,8.641331E-3,-1.37151E0,1.4854655E-1,5.722289E-1,-6.8945473E-1,1.6299199E0,-8.749549E-2,5.155117E0,2.5128584E0,2.022393E0,-9.1844004E-1,-1.1728197E-1,6.602943E-4,2.7318005E-2,-3.7611593E-3,-9.370538E-1,5.574703E-1,-1.0630282E-1,1.9863905E0,-5.1332265E-2,-1.09976344E-1,-2.31989E-2,-7.2003916E-2,-7.5425744E-2,1.5707365E-1,2.8547725E-2,-1.1202398E-2,-0E0,5.725388E-2,-6.384667E-2,-0E0,1.4395097E-1,3.1459294E-3,2.7939644E-1,6.903313E-2,6.939177E-2,1.7749898E-1,-2.3894722E-3,1.1783637E-1,6.078438E-3,-1.1876899E-1,-6.2270327E-3,2.171547E-2,-3.8480166E-2,-1.3021739E-1,3.8463306E-2,3.3959725E-3,1.38608245E-2,1.1129402E-1],"categories":[],"categories_nodes":[],"categories_segments":[],"categories_sizes":[],"default_left":[0,0,0,0,0,0,0,0,0,0,0,0,0,0,0,0,0,0,0,0,0,0,0,0,0,0,0,0,0,0,0,0,0,0,0,0,0,0,0,0,0,0,0,0,0,0,0,0,0,0,0,0,0,0,0,0,0,0,0,0,0,0,0,0,0,0,0,0,0,0,0,0,0,0,0,0,0,0,0,0,0],"id":1,"left_children":[1,3,5,7,9,11,13,15,-1,17,19,21,23,25,27,29,-1,31,-1,33,35,37,39,41,43,45,-1,47,49,51,53,-1,-1,55,57,59,61,63,-1,65,67,69,71,-1,73,-1,-1,75,77,-1,79,-1,-1,-1,-1,-1,-1,-1,-1,-1,-1,-1,-1,-1,-1,-1,-1,-1,-1,-1,-1,-1,-1,-1,-1,-1,-1,-1,-1,-1,-1],"loss_changes":[8.801605E2,8.335864E1,3.9818445E2,2.9120758E1,8.508275E1,2.2846417E2,1.731774E2,4.897156E0,0E0,1.306163E1,4.6836525E1,1.7338391E2,8.27881E1,1.3809874E2,7.988226E1,2.0020905E0,0E0,4.1273556E0,0E0,6.0837746E1,1.1271723E1,7.091113E1,1.4291748E2,8.707744E1,2.6814306E1,6.6456693E-1,0E0,6.2354237E1,5.6176655E1,2.3848724E0,6.997223E-1,0E0,0E0,6.175099E1,6.055308E0,1.0500972E1,3.8746657E0,3.808309E1,0E0,4.7371277E1,6.7099335E1,2.6414246E1,2.2178143E1,0E0,6.8995255E-1,0E0,0E0,2.6298363E1,3.6366205E0,0E0,7.6372757E0,0E0,0E0,0E0,0E0,0E0,0E0,0E0,0E0,0E0,0E0,0E0,0E0,0E0,0E0,0E0,0E0,0E0,0E0,0E0,0E0,0E0,0E0,0E0,0E0,0E0,0E0,0E0,0E0,0E0,0E0],"parents":[2147483647,0,0,1,1,2,2,3,3,4,4,5,5,6,6,7,7,9,9,10,10,11,11,12,12,13,13,14,14,15,15,17,17,19,19,20,20,21,21,22,22,23,23,24,24,25,25,27,27,28,28,29,29,30,30,33,33,34,34,35,35,36,36,37,37,39,39,40,40,41,41,42,42,44,44,47,47,48,48,50,50],"right_children":[2,4,6,8,10,12,14,16,-1,18,20,22,24,26,28,30,-1,32,-1,34,36,38,40,42,44,46,-1,48,50,52,54,-1,-1,56,58,60,62,64,-1,66,68,70,72,-1,74,-1,-1,76,78,-1,80,-1,-1,-1,-1,-1,-1,-1,-1,-1,-1,-1,-1,-1,-1,-1,-1,-1,-1,-1,-1,-1,-1,-1,-1,-1,-1,-1,-1,-1,-1],"split_conditions":[6.6E-1,3.959E2,1.065E3,1.154E3,6.75E2,1.848E0,5.9E2,9.3412E2,-1.4675772E-1,5.46E2,8.23E2,3.95E2,1.025E1,4.4E2,1.5E0,1.0783E3,-3.185624E-2,5.65E2,-1.71104E-1,1.1157E3,9.07E2,9.78E2,9.135E2,9E2,8.068E2,1.1473E3,4.3352553E-1,2.52E0,3.081E2,8.78E2,1.106E3,-8.091104E-2,8.641331E-3,5.6E2,2E-2,8.424E2,9.289E2,3.256E2,-8.749549E-2,1.51E0,1.01E0,6.73E2,4.014E2,-1.1728197E-1,1.01E0,2.7318005E-2,-3.7611593E-3,5.7E-1,6.521E2,-1.0630282E-1,7.262E2,-5.1332265E-2,-1.09976344E-1,-2.31989E-2,-7.2003916E-2,-7.5425744E-2,1.5707365E-1,2.8547725E-2,-1.1202398E-2,-0E0,5.725388E-2,-6.384667E-2,-0E0,1.4395097E-1,3.1459294E-3,2.7939644E-1,6.903313E-2,6.939177E-2,1.7749898E-1,-2.3894722E-3,1.1783637E-1,6.078438E-3,-1.1876899E-1,-6.2270327E-3,2.171547E-2,-3.8480166E-2,-1.3021739E-1,3.8463306E-2,3.3959725E-3,1.38608245E-2,1.1129402E-1],"split_indices":[5,0,1,1,1,4,2,2,0,1,2,0,4,0,5,1,0,0,0,1,2,1,1,2,2,1,0,4,0,1,1,0,0,0,4,2,1,0,0,5,5,2,0,0,5,0,0,4,2,0,2,0,0,0,0,0,0,0,0,0,0,0,0,0,0,0,0,0,0,0,0,0,0,0,0,0,0,0,0,0,0],"split_type":[0,0,0,0,0,0,0,0,0,0,0,0,0,0,0,0,0,0,0,0,0,0,0,0,0,0,0,0,0,0,0,0,0,0,0,0,0,0,0,0,0,0,0,0,0,0,0,0,0,0,0,0,0,0,0,0,0,0,0,0,0,0,0,0,0,0,0,0,0,0,0,0,0,0,0,0,0,0,0,0,0],"sum_hessian":[6.4E2,2.78E2,3.62E2,9.1E1,1.87E2,1.9E2,1.72E2,6.2E1,2.9E1,2E1,1.67E2,1.23E2,6.7E1,7E0,1.65E2,5.5E1,7E0,7E0,1.3E1,1.28E2,3.9E1,2.7E1,9.6E1,4.9E1,1.8E1,4E0,3E0,1.41E2,2.4E1,2.9E1,2.6E1,6E0,1E0,9.2E1,3.6E1,3.1E1,8E0,1.9E1,8E0,3.4E1,6.2E1,3.6E1,1.3E1,9E0,9E0,2E0,2E0,1.04E2,3.7E1,3E0,2.1E1,6E0,2.3E1,3E0,2.3E1,9E1,2E0,1.7E1,1.9E1,1.6E1,1.5E1,4E0,4E0,1E1,9E0,3E1,4E0,3.1E1,3.1E1,5E0,3.1E1,8E0,5E0,7E0,2E0,9.6E1,8E0,2.5E1,1.2E1,3E0,1.8E1],"tree_param":{"num_deleted":"0","num_feature":"7","num_nodes":"81","size_leaf_vector":"1"}},{"base_weights":[-2.5303617E-2,-1.3955258E0,1.0451334E0,-1.4772266E0,1.6912419E-1,-3.8478613E-1,1.7930107E0,-3.0167505E-1,-1.7631805E0,4.443664E-1,-1.1136699E0,2.5173573E0,6.7302203E-1,-6.621039E-1,9.1836673E-1,-3.1536741E0,-1.6174582E0,1.0319589E0,-1.0503892E0,-8.151262E-1,-1.1945341E-1,3.2652864E0,1.0399449E0,3.288655E-1,4.1726834E-1,-5.5598266E-2,-2.283874E-1,-4.3617364E-2,1.3505281E0,-7.120049E-2,-1.6787484E-1,-2.0748293E0,-1.1928487E0,-3.2589397E-1,1.5777695E0,-9.700235E-2,-8.390299E-2,-9.210592E-1,-2.2208592E-2,4.6905584E0,2.4969428E0,2.97623E0,1.9593881E-1,9.299184E-1,-7.1498704E-1,-2.5175735E-2,1.7365327E-2,-5.6335614E-3,7.690576E-2,-8.1571504E-2,-1.4782682E-1,-7.0116274E-2,1.5366909E-2,-2.9139241E-2,1.0471438E-3,2.2137375E-1,4.239616E-2,-1.2989727E-2,-0E0,-4.804978E-2,-0E0,2.6787025E-1,9.91422E-2,6.724896E-2,1.6736102E-1,2.7873186E-2,1.754733E-1,-8.8036336E-2,4.1429173E-2,2.294638E-2,1.02445E-1,-4.603236E-2,-1.8655384E-2],"categories":[],"categories_nodes":[],"categories_segments":[],"categories_sizes":[],"default_left":[0,0,0,0,0,0,0,0,0,0,0,0,0,0,0,0,0,0,0,0,0,0,0,0,0,0,0,0,0,0,0,0,0,0,0,0,0,0,0,0,0,0,0,0,0,0,0,0,0,0,0,0,0,0,0,0,0,0,0,0,0,0,0,0,0,0,0,0,0,0,0,0,0],"id":2,"left_children":[1,3,5,7,-1,9,11,13,15,17,19,21,23,25,27,29,31,33,35,37,-1,39,41,43,-1,-1,45,-1,47,-1,-1,49,51,53,55,57,-1,59,-1,61,63,65,67,69,71,-1,-1,-1,-1,-1,-1,-1,-1,-1,-1,-1,-1,-1,-1,-1,-1,-1,-1,-1,-1,-1,-1,-1,-1,-1,-1,-1,-1],"loss_changes":[9.4614197E2,1.1489905E2,3.882368E2,9.26355E1,0E0,7.624014E1,1.9042859E2,2.5156513E1,3.8855835E1,5.2898552E1,2.2602417E1,1.5443256E2,2.4549957E2,7.928879E0,1.13819895E1,8.3532715E-1,3.6356567E1,3.2758366E1,9.477726E0,1.3819122E0,0E0,9.01662E1,8.0177E1,5.8451138E1,0E0,0E0,4.023075E0,0E0,3.620184E0,0E0,0E0,3.172226E1,3.50132E1,1.3390476E0,5.9138474E1,1.9469713E-1,0E0,1.3097992E0,0E0,4.495514E1,5.677771E1,1.617012E1,4.5742733E1,2.9402119E1,1.6589451E0,0E0,0E0,0E0,0E0,0E0,0E0,0E0,0E0,0E0,0E0,0E0,0E0,0E0,0E0,0E0,0E0,0E0,0E0,0E0,0E0,0E0,0E0,0E0,0E0,0E0,0E0,0E0,0E0],"parents":[2147483647,0,0,1,1,2,2,3,3,5,5,6,6,7,7,8,8,9,9,10,10,11,11,12,12,13,13,14,14,15,15,16,16,17,17,18,18,19,19,21,21,22,22,23,23,26,26,28,28,31,31,32,32,33,33,34,34,35,35,37,37,39,39,40,40,41,41,42,42,43,43,44,44],"right_children":[2,4,6,8,-1,10,12,14,16,18,20,22,24,26,28,30,32,34,36,38,-1,40,42,44,-1,-1,46,-1,48,-1,-1,50,52,54,56,58,-1,60,-1,62,64,66,68,70,72,-1,-1,-1,-1,-1,-1,-1,-1,-1,-1,-1,-1,-1,-1,-1,-1,-1,-1,-1,-1,-1,-1,-1,-1,-1,-1,-1,-1],"split_conditions":[6.6E-1,6.6E2,3.95E2,1.573E2,1.6912419E-1,1.0788E3,1.065E3,1.4904E2,6.75E2,1.794E2,8E-2,1.81E0,2.02E2,3.675E0,4.014E2,5.4E2,3.95E2,1E0,7.611E2,1.01E0,-1.1945341E-1,9.135E2,1.573E2,1.74E2,4.1726834E-1,-5.5598266E-2,1.127E3,-4.3617364E-2,1.3E0,-7.120049E-2,-1.6787484E-1,1.154E3,1.1725E3,1.788E2,3.251E2,8.9E-1,-8.390299E-2,1E-2,-2.2208592E-2,1.782E2,1.01E0,4.38E2,4.28E0,1.01E0,1E0,-2.5175735E-2,1.7365327E-2,-5.6335614E-3,7.690576E-2,-8.1571504E-2,-1.4782682E-1,-7.0116274E-2,1.5366909E-2,-2.9139241E-2,1.0471438E-3,2.2137375E-1,4.239616E-2,-1.2989727E-2,-0E0,-4.804978E-2,-0E0,2.6787025E-1,9.91422E-2,6.724896E-2,1.6736102E-1,2.7873186E-2,1.754733E-1,-8.8036336E-2,4.1429173E-2,2.294638E-2,1.02445E-1,-4.603236E-2,-1.8655384E-2],"split_indices":[5,0,0,3,0,1,1,3,1,3,4,4,3,4,0,1,0,5,1,5,0,1,3,3,0,0,1,0,4,0,0,1,1,3,0,5,0,4,0,3,5,0,4,5,5,0,0,0,0,0,0,0,0,0,0,0,0,0,0,0,0,0,0,0,0,0,0,0,0,0,0,0,0],"split_type":[0,0,0,0,0,0,0,0,0,0,0,0,0,0,0,0,0,0,0,0,0,0,0,0,0,0,0,0,0,0,0,0,0,0,0,0,0,0,0,0,0,0,0,0,0,0,0,0,0,0,0,0,0,0,0,0,0,0,0,0,0,0,0,0,0,0,0,0,0,0,0,0,0],"sum_hessian":[6.43E2,2.82E2,3.61E2,2.78E2,4E0,1.24E2,2.37E2,5.5E1,2.23E2,5.8E1,6.6E1,1.43E2,9.4E1,4.3E1,1.2E1,1.9E1,2.04E2,4.2E1,1.6E1,5.5E1,1.1E1,9.4E1,4.9E1,9.1E1,3E0,2E1,2.3E1,2E0,1E1,3E0,1.6E1,9.6E1,1.08E2,1.2E1,3E1,7E0,9E0,4.1E1,1.4E1,3.1E1,6.3E1,1.4E1,3.5E1,5.8E1,3.3E1,1.6E1,7E0,1E0,9E0,6.6E1,3E1,9.5E1,1.3E1,7E0,5E0,5E0,2.5E1,3E0,4E0,3.9E1,2E0,2.4E1,7E0,2.8E1,3.5E1,3E0,1.1E1,8E0,2.7E1,4.2E1,1.6E1,1.9E1,1.4E1],"tree_param":{"num_deleted":"0","num_feature":"7","num_nodes":"73","size_leaf_vector":"1"}},{"base_weights":[-3.959292E-2,-1.2325157E0,8.638317E-1,-5.7740515E-1,-1.8636684E0,2.1077073E0,-2.0007676E-2,4.6626294E-1,-1.0802401E0,-5.095373E-1,-2.1503174E0,5.537823E0,1.707081E0,-4.1480547E-1,9.8447573E-1,1.0916003E0,-1.4236042E0,-4.7425345E-1,-1.4410276E0,-1.9898665E0,4.6064857E-1,-1.9020462E0,-1.4437103E-1,3.0614623E-1,-7.34676E-2,3.5086184E0,1.1950921E0,7.327106E-1,-8.154794E-1,1.7525343E0,-1.016367E0,1.6695787E-1,6.9693196E-1,-2.1642227E0,-0E0,-8.225048E-1,9.456572E-2,-1.4930475E0,-2.6448888E-1,-1.237144E-1,-4.268516E-2,5.2360177E-2,-1.437562E-1,-1.3825136E0,-2.3747268E0,6.756578E-2,2.3921071E-1,1.3985809E0,-4.5471218E-1,9.358799E-2,5.2008885E-1,2.6274717E-1,-9.131715E-1,2.71288E0,-6.1489034E-1,-1.9515176E0,-4.3094654E-2,-4.3306228E-2,3.9248504E-2,-1.5517657E-2,-1.170934E-1,6.000249E-3,-1.1849031E-4,1.5038698E-2,-4.4873185E-2,-2.55454E-3,1.3295077E-2,-4.7652032E-2,-8.04602E-2,9.556632E-3,-2.900368E-2,4.0124105E-3,-1.0964389E-2,6.3762926E-2,-7.678213E-2,-1.4096628E-1,-8.092763E-2,4.7826666E-2,1.02064505E-1,8.887456E-3,-5.3253587E-2,2.9640635E-2,-1.9532382E-4,-5.7741374E-2,-2.1774849E-2,5.133438E-2,2.1109222E-1,1.2253317E-2,-9.2617184E-2,-3.2976966E-2,-1.09178856E-1,-1.250262E-2,1.9233068E-3],"categories":[],"categories_nodes":[],"categories_segments":[],"categories_sizes":[],"default_left":[0,0,0,0,0,0,0,0,0,0,0,0,0,0,0,0,0,0,0,0,0,0,0,0,0,0,0,0,0,0,0,0,0,0,0,0,0,0,0,0,0,0,0,0,0,0,0,0,0,0,0,0,0,0,0,0,0,0,0,0,0,0,0,0,0,0,0,0,0,0,0,0,0,0,0,0,0,0,0,0,0,0,0,0,0,0,0,0,0,0,0,0,0],"id":3,"left_children":[1,3,5,7,9,11,13,15,17,19,21,23,25,27,29,31,33,35,37,39,41,43,-1,-1,-1,45,47,49,51,53,55,-1,57,59,61,63,65,67,69,-1,-1,-1,71,73,75,-1,-1,77,79,-1,81,-1,83,85,87,89,91,-1,-1,-1,-1,-1,-1,-1,-1,-1,-1,-1,-1,-1,-1,-1,-1,-1,-1,-1,-1,-1,-1,-1,-1,-1,-1,-1,-1,-1,-1,-1,-1,-1,-1,-1,-1],"loss_changes":[7.200118E2,1.1727231E2,4.1843524E2,7.573324E1,5.477771E1,2.0549579E2,8.867209E1,5.699922E1,1.994934E1,4.0152645E1,1.5031372E1,7.5991425E1,1.2629428E2,7.464688E1,9.881821E1,2.8395428E1,1.3151091E1,7.823661E0,2.7500458E0,2.9434967E0,6.4483576E0,1.8428009E1,0E0,0E0,0E0,7.700159E1,3.8855103E1,8.480803E0,7.466005E1,1.06880646E2,1.5700327E1,0E0,5.0590067E0,1.112175E0,2.8824855E-2,2.4697323E0,4.52371E-1,1.2730255E0,8.0270195E-1,0E0,0E0,0E0,2.1158397E-1,2.1164604E1,9.906525E0,0E0,0E0,2.5842987E1,5.473887E0,0E0,1.5889454E0,0E0,1.27565E1,7.8056274E1,1.5834318E1,4.0525436E-1,2.4189076E-1,0E0,0E0,0E0,0E0,0E0,0E0,0E0,0E0,0E0,0E0,0E0,0E0,0E0,0E0,0E0,0E0,0E0,0E0,0E0,0E0,0E0,0E0,0E0,0E0,0E0,0E0,0E0,0E0,0E0,0E0,0E0,0E0,0E0,0E0,0E0,0E0],"parents":[2147483647,0,0,1,1,2,2,3,3,4,4,5,5,6,6,7,7,8,8,9,9,10,10,11,11,12,12,13,13,14,14,15,15,16,16,17,17,18,18,19,19,20,20,21,21,25,25,26,26,27,27,28,28,29,29,30,30,32,32,33,33,34,34,35,35,36,36,37,37,38,38,42,42,43,43,44,44,47,47,48,48,50,50,52,52,53,53,54,54,55,55,56,56],"right_children":[2,4,6,8,10,12,14,16,18,20,22,24,26,28,30,32,34,36,38,40,42,44,-1,-1,-1,46,48,50,52,54,56,-1,58,60,62,64,66,68,70,-1,-1,-1,72,74,76,-1,-1,78,80,-1,82,-1,84,86,88,90,92,-1,-1,-1,-1,-1,-1,-1,-1,-1,-1,-1,-1,-1,-1,-1,-1,-1,-1,-1,-1,-1,-1,-1,-1,-1,-1,-1,-1,-1,-1,-1,-1,-1,-1,-1,-1],"split_conditions":[6.6E-1,1.703E2,1.718E2,1.0478E3,6.51E2,8.58E2,8.23E2,9.068E2,1.44E2,1.154E3,1.111E3,7.884E2,1.376E2,1.74E2,2.15E2,8.495E2,3.7E0,1.1097E3,5.0955415E-1,1.116E3,3E-1,8.8E-1,-1.4437103E-1,3.0614623E-1,-7.34676E-2,1.01E0,1.636E2,1.0605E3,5.561E2,9.01E2,9.19E2,1.6695787E-1,8.497E2,9.14E2,9.45E2,1.375E2,1.127E3,1.0544E3,6.15E2,-1.237144E-1,-4.268516E-2,5.2360177E-2,1.194E3,5.46E2,8.43E2,6.756578E-2,2.3921071E-1,1.01E0,9.82E2,9.358799E-2,1.081E3,2.6274717E-1,1.01E0,9E-1,9.3755E2,8.57E2,8.9E-1,-4.3306228E-2,3.9248504E-2,-1.5517657E-2,-1.170934E-1,6.000249E-3,-1.1849031E-4,1.5038698E-2,-4.4873185E-2,-2.55454E-3,1.3295077E-2,-4.7652032E-2,-8.04602E-2,9.556632E-3,-2.900368E-2,4.0124105E-3,-1.0964389E-2,6.3762926E-2,-7.678213E-2,-1.4096628E-1,-8.092763E-2,4.7826666E-2,1.02064505E-1,8.887456E-3,-5.3253587E-2,2.9640635E-2,-1.9532382E-4,-5.7741374E-2,-2.1774849E-2,5.133438E-2,2.1109222E-1,1.2253317E-2,-9.2617184E-2,-3.2976966E-2,-1.09178856E-1,-1.250262E-2,1.9233068E-3],"split_indices":[5,3,3,1,2,1,2,2,3,1,1,2,3,3,3,1,4,1,5,1,5,4,0,0,0,5,3,1,2,2,2,0,1,2,2,3,1,1,2,0,0,0,1,1,1,0,0,5,1,0,1,0,5,5,2,2,5,0,0,0,0,0,0,0,0,0,0,0,0,0,0,0,0,0,0,0,0,0,0,0,0,0,0,0,0,0,0,0,0,0,0,0,0],"split_type":[0,0,0,0,0,0,0,0,0,0,0,0,0,0,0,0,0,0,0,0,0,0,0,0,0,0,0,0,0,0,0,0,0,0,0,0,0,0,0,0,0,0,0,0,0,0,0,0,0,0,0,0,0,0,0,0,0,0,0,0,0,0,0,0,0,0,0,0,0,0,0,0,0,0,0,0,0,0,0,0,0,0,0,0,0,0,0,0,0,0,0,0,0],"sum_hessian":[6.66E2,2.87E2,3.79E2,1.42E2,1.45E2,1.57E2,2.22E2,4.6E1,9.6E1,2.6E1,1.19E2,1.5E1,1.42E2,1.6E2,6.2E1,3.5E1,1.1E1,3.7E1,5.9E1,1E1,1.6E1,9.2E1,2.7E1,1.4E1,1E0,3E1,1.12E2,4.1E1,1.19E2,4.5E1,1.7E1,4E0,3.1E1,7E0,4E0,2.3E1,1.4E1,5.6E1,3E0,6E0,4E0,8E0,8E0,4.6E1,4.6E1,1.2E1,1.8E1,1E2,1.2E1,5E0,3.6E1,1E0,1.18E2,3.2E1,1.3E1,8E0,9E0,1E0,3E1,1E0,6E0,1E0,3E0,1E0,2.2E1,7E0,7E0,1.2E1,4.4E1,1E0,2E0,1E0,7E0,2E0,4.4E1,2.7E1,1.9E1,6.1E1,3.9E1,6E0,6E0,3.2E1,4E0,7.7E1,4.1E1,1.6E1,1.6E1,8E0,5E0,2E0,6E0,3E0,6E0],"tree_param":{"num_deleted":"0","num_feature":"7","num_nodes":"93","size_leaf_vector":"1"}},{"base_weights":[1.3590418E-2,-1.1935767E0,9.302518E-1,-1.7550117E-1,-1.4153281E0,2.0550637E0,1.3729146E-1,-4.6759197E-1,1.2386651E0,-1.4737269E0,2.2068255E0,1.21771E0,3.2731092E0,3.9577386E-1,-5.3354176E-3,-8.5088146E-1,-0E0,-0E0,1.3921708E0,-1.377839E0,-1.3226843E-1,2.603118E-3,1.403863E-1,5.7219976E-1,1.0855627E-1,2.4804816E0,2.6890668E-1,-5.9849834E-1,1.5517492E0,-0E0,-4.650937E-2,1.0074722E-1,-3.4451474E-2,-0E0,7.762296E-2,-3.2047212E-1,-1.5336766E0,-1.04583435E-1,1.2395967E0,3.1589653E0,-3.1580475E-1,6.9206333E-1,-1.0013318E0,2.5461545E0,-4.0196306E-1,-1.4462905E-2,1.5537088E-2,-0E0,3.1737976E-2,-5.3829618E-2,1.7120628E-2,-6.0783107E-2,-1.0137116E-1,-5.7694722E-2,7.480097E-3,6.731831E-2,8.034786E-3,9.3117006E-2,2.239765E-1,-5.8112092E-2,8.506572E-3,2.0766493E-2,9.0770364E-2,-3.8705405E-2,-9.3747005E-2,1.5185125E-1,-7.186722E-2,-1.1498126E-3,-9.6591145E-2],"categories":[],"categories_nodes":[],"categories_segments":[],"categories_sizes":[],"default_left":[0,0,0,0,0,0,0,0,0,0,0,0,0,0,0,0,0,0,0,0,0,0,0,0,0,0,0,0,0,0,0,0,0,0,0,0,0,0,0,0,0,0,0,0,0,0,0,0,0,0,0,0,0,0,0,0,0,0,0,0,0,0,0,0,0,0,0,0,0],"id":4,"left_children":[1,3,5,7,9,11,13,15,17,19,21,23,25,-1,27,29,31,-1,33,35,-1,-1,-1,37,-1,39,-1,41,43,45,-1,47,-1,-1,-1,49,51,53,55,57,59,61,63,65,67,-1,-1,-1,-1,-1,-1,-1,-1,-1,-1,-1,-1,-1,-1,-1,-1,-1,-1,-1,-1,-1,-1,-1,-1],"loss_changes":[7.258304E2,6.3164368E1,3.317505E2,2.1827246E1,5.2107056E1,1.5173706E2,2.4647852E2,7.755723E0,1.696495E0,2.0875427E1,4.1750774E0,5.5170563E1,8.7749084E1,0E0,2.01065E2,1.6594868E0,1.6171346E0,0E0,1.3657885E0,3.421469E1,0E0,0E0,0E0,2.6216078E1,0E0,9.10206E1,0E0,8.292703E1,1.1823363E2,3.6046135E-1,0E0,1.0159088E0,0E0,0E0,0E0,1.5124287E1,2.5767853E1,8.208777E0,2.672142E0,5.4821564E1,4.608511E0,1.0389729E1,2.1772919E1,8.3060455E1,1.1544218E1,0E0,0E0,0E0,0E0,0E0,0E0,0E0,0E0,0E0,0E0,0E0,0E0,0E0,0E0,0E0,0E0,0E0,0E0,0E0,0E0,0E0,0E0,0E0,0E0],"parents":[2147483647,0,0,1,1,2,2,3,3,4,4,5,5,6,6,7,7,8,8,9,9,10,10,11,11,12,12,14,14,15,15,16,16,18,18,19,19,23,23,25,25,27,27,28,28,29,29,31,31,35,35,36,36,37,37,38,38,39,39,40,40,41,41,42,42,43,43,44,44],"right_children":[2,4,6,8,10,12,14,16,18,20,22,24,26,-1,28,30,32,-1,34,36,-1,-1,-1,38,-1,40,-1,42,44,46,-1,48,-1,-1,-1,50,52,54,56,58,60,62,64,66,68,-1,-1,-1,-1,-1,-1,-1,-1,-1,-1,-1,-1,-1,-1,-1,-1,-1,-1,-1,-1,-1,-1,-1,-1],"split_conditions":[6.6E-1,1.573E2,1.7045E2,4.03E0,6.6E2,4.6E2,5.9E2,7.44E2,4.014E2,6.3E-1,1.9E-1,1.01E0,1.648E2,3.9577386E-1,8.23E2,1.33E2,9E2,-0E0,2E-1,6.513E2,-1.3226843E-1,2.603118E-3,1.403863E-1,4.014E2,1.0855627E-1,1.573E2,2.6890668E-1,1.74E2,9.01E2,1.9E-1,-4.650937E-2,4.38E2,-3.4451474E-2,-0E0,7.762296E-2,6.426E2,1.782E2,7.34E2,9E2,1.01E0,1.01E0,1.01E0,8E-2,2.15E2,3.889E2,-1.4462905E-2,1.5537088E-2,-0E0,3.1737976E-2,-5.3829618E-2,1.7120628E-2,-6.0783107E-2,-1.0137116E-1,-5.7694722E-2,7.480097E-3,6.731831E-2,8.034786E-3,9.3117006E-2,2.239765E-1,-5.8112092E-2,8.506572E-3,2.0766493E-2,9.0770364E-2,-3.8705405E-2,-9.3747005E-2,1.5185125E-1,-7.186722E-2,-1.1498126E-3,-9.6591145E-2],"split_indices":[5,3,3,4,0,0,2,2,0,5,5,5,3,0,2,3,2,0,5,2,0,0,0,0,0,3,0,3,2,5,0,0,0,0,0,2,3,2,2,5,5,5,4,3,0,0,0,0,0,0,0,0,0,0,0,0,0,0,0,0,0,0,0,0,0,0,0,0,0],"split_type":[0,0,0,0,0,0,0,0,0,0,0,0,0,0,0,0,0,0,0,0,0,0,0,0,0,0,0,0,0,0,0,0,0,0,0,0,0,0,0,0,0,0,0,0,0,0,0,0,0,0,0,0,0,0,0,0,0,0,0,0,0,0,0,0,0,0,0,0,0],"sum_hessian":[6.54E2,2.82E2,3.72E2,5.1E1,2.31E2,1.53E2,2.19E2,4.3E1,8E0,2.28E2,3E0,9.2E1,6.1E1,3E0,2.16E2,2.3E1,2E1,1E0,7E0,2.13E2,1.5E1,1E0,2E0,5.6E1,3.6E1,4.6E1,1.5E1,1.57E2,5.9E1,2E0,2.1E1,1.8E1,2E0,1E0,6E0,2.8E1,1.85E2,2.8E1,2.8E1,3.7E1,9E0,3.7E1,1.2E2,3.9E1,2E1,1E0,1E0,1.6E1,2E0,1.3E1,1.5E1,1.15E2,7E1,5E0,2.3E1,2.5E1,3E0,2E1,1.7E1,3E0,6E0,3.1E1,6E0,9.7E1,2.3E1,3.5E1,4E0,1.7E1,3E0],"tree_param":{"num_deleted":"0","num_feature":"7","num_nodes":"69","size_leaf_vector":"1"}},{"base_weights":[-1.3262789E-2,6.58823E-1,-7.3172593E-1,-1.6494112E-1,1.3340698E0,-9.176678E-1,2.134771E0,-7.1087253E-1,2.6778775E-1,1.1115584E0,4.535568E0,-2.5646827E0,-7.2826517E-1,4.3120894E0,-2.4819758E0,-1.2469168E0,7.96354E-2,4.039433E-1,-1.3087325E-1,9.4754916E-1,2.2409074E-1,3.0386004E-1,-1.0075312E-1,-1.3489664E-1,-4.578815E-2,-7.9748017E-1,2.4693234E0,1.8488052E0,2.9454762E-1,7.9385685E-3,-1.4992811E-1,-1.3637525E0,-6.336574E-1,-8.3409496E-2,2.8199986E-1,1.968741E-1,1.2658746E0,1.7871773E0,4.4769692E-1,-9.973962E-1,1.7014936E-1,2.538042E-3,1.4414419E-1,1.1288568E-1,-7.616131E-3,-7.527627E-2,-4.214726E-2,-1.6080445E-2,-5.2527573E-2,-4.0842235E-2,2.0729061E-2,-2.9009795E-2,1.4859329E-2,1.182144E-2,6.87311E-2,1.23789966E-1,6.048239E-2,3.621695E-2,-4.4980317E-2,-3.4881454E-2,-1.0710968E-1,3.3337888E-1,-1.3006347E-2],"categories":[],"categories_nodes":[],"categories_segments":[],"categories_sizes":[],"default_left":[0,0,0,0,0,0,0,0,0,0,0,0,0,0,0,0,0,0,0,0,0,0,0,0,0,0,0,0,0,0,0,0,0,0,0,0,0,0,0,0,0,0,0,0,0,0,0,0,0,0,0,0,0,0,0,0,0,0,0,0,0,0,0],"id":5,"left_children":[1,3,5,7,9,11,13,15,17,19,21,23,25,27,29,31,33,35,-1,37,-1,-1,-1,-1,-1,39,41,43,-1,-1,-1,45,47,-1,49,51,53,55,57,59,61,-1,-1,-1,-1,-1,-1,-1,-1,-1,-1,-1,-1,-1,-1,-1,-1,-1,-1,-1,-1,-1,-1],"loss_changes":[3.2450897E2,1.9358751E2,1.7481949E2,3.7413013E1,1.2932697E2,9.260074E1,2.122941E2,3.011179E1,3.496345E1,9.3620026E1,1.3464853E2,3.256485E0,6.255229E1,4.1235504E1,1.0877235E1,1.5459518E0,1.0311807E1,1.448271E1,0E0,7.113579E1,0E0,0E0,0E0,0E0,0E0,5.2841385E1,4.9748993E0,6.7034645E0,0E0,0E0,0E0,5.3681564E-1,4.213059E-1,0E0,4.151499E0,5.544011E0,9.828758E-1,2.1352295E1,4.159832E1,7.486743E1,1.3505405E2,0E0,0E0,0E0,0E0,0E0,0E0,0E0,0E0,0E0,0E0,0E0,0E0,0E0,0E0,0E0,0E0,0E0,0E0,0E0,0E0,0E0,0E0],"parents":[2147483647,0,0,1,1,2,2,3,3,4,4,5,5,6,6,7,7,8,8,9,9,10,10,11,11,12,12,13,13,14,14,15,15,16,16,17,17,19,19,25,25,26,26,27,27,31,31,32,32,34,34,35,35,36,36,37,37,38,38,39,39,40,40],"right_children":[2,4,6,8,10,12,14,16,18,20,22,24,26,28,30,32,34,36,-1,38,-1,-1,-1,-1,-1,40,42,44,-1,-1,-1,46,48,-1,50,52,54,56,58,60,62,-1,-1,-1,-1,-1,-1,-1,-1,-1,-1,-1,-1,-1,-1,-1,-1,-1,-1,-1,-1,-1,-1],"split_conditions":[1.74E2,4.483E2,8.0645164E1,4E2,8.4E1,3.244E2,8.921E2,6.504065E1,9.94E2,5.6E2,4.877E2,1E0,6.6E2,9.1E-1,3.352E2,8.35E2,6.733E2,7E1,-1.3087325E-1,1.573E2,2.2409074E-1,3.0386004E-1,-1.0075312E-1,-1.3489664E-1,-4.578815E-2,2.062E2,3.2E1,3.251E2,2.9454762E-1,7.9385685E-3,-1.4992811E-1,6.5E1,3.066E2,-8.3409496E-2,3.496E2,6.71E2,4.014E2,5.497E2,5.238E2,4.18E2,5.561E2,2.538042E-3,1.4414419E-1,1.1288568E-1,-7.616131E-3,-7.527627E-2,-4.214726E-2,-1.6080445E-2,-5.2527573E-2,-4.0842235E-2,2.0729061E-2,-2.9009795E-2,1.4859329E-2,1.182144E-2,6.87311E-2,1.23789966E-1,6.048239E-2,3.621695E-2,-4.4980317E-2,-3.4881454E-2,-1.0710968E-1,3.3337888E-1,-1.3006347E-2],"split_indices":[3,0,6,0,6,0,2,6,2,0,0,4,0,4,0,2,2,6,0,3,0,0,0,0,0,3,6,0,0,0,0,6,0,0,0,2,0,0,0,0,2,0,0,0,0,0,0,0,0,0,0,0,0,0,0,0,0,0,0,0,0,0,0],"split_type":[0,0,0,0,0,0,0,0,0,0,0,0,0,0,0,0,0,0,0,0,0,0,0,0,0,0,0,0,0,0,0,0,0,0,0,0,0,0,0,0,0,0,0,0,0,0,0,0,0,0,0,0,0,0,0,0,0,0,0,0,0,0,0],"sum_hessian":[6.7E2,3.46E2,3.24E2,1.56E2,1.9E2,3.05E2,1.9E1,6.9E1,8.7E1,1.79E2,1.1E1,3E1,2.75E2,1.3E1,6E0,4.1E1,2.8E1,8.4E1,3E0,1.72E2,7E0,9E0,2E0,2.7E1,3E0,2.7E2,5E0,6E0,7E0,1E0,5E0,3.3E1,8E0,2E0,2.6E1,6.9E1,1.5E1,6.3E1,1.09E2,2.24E2,4.6E1,1E0,4E0,5E0,1E0,2.4E1,9E0,6E0,2E0,2E0,2.4E1,7E0,6.2E1,2E0,1.3E1,2.7E1,3.6E1,9.1E1,1.8E1,1.79E2,4.5E1,2E0,4.4E1],"tree_param":{"num_deleted":"0","num_feature":"7","num_nodes":"63","size_leaf_vector":"1"}},{"base_weights":[1.8533496E-2,-1.0817846E0,8.737709E-1,-1.1491172E0,1.4293323E-1,6.489601E-1,5.446408E0,-2.456487E-1,-1.342311E0,1.5182254E0,-3.4964263E-1,3.16619E-1,-6.9892204E-1,-8.6317927E-1,3.241259E-1,-5.334387E-1,-1.5073448E0,8.9580476E-1,2.624451E0,-8.0574346E-1,4.4936115E-1,7.7401088E-3,-6.765927E-2,3.0007262E-2,-9.6165717E-1,-1.6424797E-1,8.857783E-1,-1.3725871E0,4.946588E-1,-1.130758E0,-2.0583546E0,-1.2444666E-1,1.2632769E0,2.1707232E-1,1.8989943E0,2.3794968E-1,-9.0789473E-1,9.3423504E-1,-9.236817E-1,-0E0,-5.1986557E-2,1.241957E-3,-3.8272366E-2,5.0680894E-2,-8.707397E-3,-4.7435418E-2,-1.081533E-1,5.166396E-2,-3.1713732E-3,-6.3119106E-2,1.8034702E-2,-1.0525E-1,-3.0874202E-2,-2.6193446E-2,2.9659903E-2,4.379877E-2,1.039437E-1,8.837025E-2,1.6137819E-1,-3.9546642E-2,-1.0875352E-1,6.639639E-2,-3.773752E-2,-1.256683E-2,-9.761837E-2],"categories":[],"categories_nodes":[],"categories_segments":[],"categories_sizes":[],"default_left":[0,0,0,0,0,0,0,0,0,0,0,0,0,0,0,0,0,0,0,0,0,0,0,0,0,0,0,0,0,0,0,0,0,0,0,0,0,0,0,0,0,0,0,0,0,0,0,0,0,0,0,0,0,0,0,0,0,0,0,0,0,0,0,0,0],"id":6,"left_children":[1,3,5,7,-1,9,11,13,15,17,19,-1,21,23,25,27,29,31,33,35,37,-1,-1,-1,39,41,43,45,47,49,51,53,55,-1,57,-1,59,61,63,-1,-1,-1,-1,-1,-1,-1,-1,-1,-1,-1,-1,-1,-1,-1,-1,-1,-1,-1,-1,-1,-1,-1,-1,-1,-1],"loss_changes":[6.134955E2,7.838846E1,3.719049E2,4.8240906E1,0E0,3.0556726E2,9.867392E1,1.838601E1,2.9420166E1,1.26037994E2,6.0234894E1,0E0,2.2446718E0,4.2882175E0,7.7679486E0,3.6314125E1,3.6348846E1,4.6238365E1,7.333905E1,6.285205E1,4.0811256E1,0E0,0E0,0E0,1.5880699E0,1.9463811E0,2.189865E0,4.720894E0,6.067831E0,2.3497894E1,2.9914246E0,9.749187E0,2.5721863E1,0E0,1.3635559E0,0E0,1.2803833E1,3.1096565E1,9.914294E0,0E0,0E0,0E0,0E0,0E0,0E0,0E0,0E0,0E0,0E0,0E0,0E0,0E0,0E0,0E0,0E0,0E0,0E0,0E0,0E0,0E0,0E0,0E0,0E0,0E0,0E0],"parents":[2147483647,0,0,1,1,2,2,3,3,5,5,6,6,7,7,8,8,9,9,10,10,12,12,13,13,14,14,15,15,16,16,17,17,18,18,19,19,20,20,24,24,25,25,26,26,27,27,28,28,29,29,30,30,31,31,32,32,34,34,36,36,37,37,38,38],"right_children":[2,4,6,8,-1,10,12,14,16,18,20,-1,22,24,26,28,30,32,34,36,38,-1,-1,-1,40,42,44,46,48,50,52,54,56,-1,58,-1,60,62,64,-1,-1,-1,-1,-1,-1,-1,-1,-1,-1,-1,-1,-1,-1,-1,-1,-1,-1,-1,-1,-1,-1,-1,-1,-1,-1],"split_conditions":[6.6E-1,6.6E2,8.4E1,1.573E2,1.4293323E-1,1.722E2,8.921E2,7.44E2,6.513E2,1.11E0,7.68E2,3.16619E-1,3.352E2,6.29E2,4.014E2,6.43E2,1.781E2,4.014E2,1.376E2,5.561E2,9.079E2,7.7401088E-3,-6.765927E-2,3.0007262E-2,1.33E2,7.59E2,9E2,5.2E-1,3E-1,8.4E1,2.639E2,6.504065E1,7.156E2,2.1707232E-1,5.291E2,2.3794968E-1,5.238E2,2.15E2,3.503E2,-0E0,-5.1986557E-2,1.241957E-3,-3.8272366E-2,5.0680894E-2,-8.707397E-3,-4.7435418E-2,-1.081533E-1,5.166396E-2,-3.1713732E-3,-6.3119106E-2,1.8034702E-2,-1.0525E-1,-3.0874202E-2,-2.6193446E-2,2.9659903E-2,4.379877E-2,1.039437E-1,8.837025E-2,1.6137819E-1,-3.9546642E-2,-1.0875352E-1,6.639639E-2,-3.773752E-2,-1.256683E-2,-9.761837E-2],"split_indices":[5,0,6,3,0,3,2,2,2,5,2,0,0,2,0,2,3,0,3,2,2,0,0,0,3,2,2,5,5,6,3,6,2,0,0,0,0,3,0,0,0,0,0,0,0,0,0,0,0,0,0,0,0,0,0,0,0,0,0,0,0,0,0,0,0],"split_type":[0,0,0,0,0,0,0,0,0,0,0,0,0,0,0,0,0,0,0,0,0,0,0,0,0,0,0,0,0,0,0,0,0,0,0,0,0,0,0,0,0,0,0,0,0,0,0,0,0,0,0,0,0,0,0,0,0,0,0,0,0,0,0,0,0],"sum_hessian":[6.5E2,2.84E2,3.66E2,2.8E2,4E0,3.5E2,1.6E1,5E1,2.3E2,1.87E2,1.63E2,1.4E1,2E0,2.4E1,2.6E1,4E1,1.9E2,1.21E2,6.6E1,1.04E2,5.9E1,1E0,1E0,1E0,2.3E1,1.4E1,1.2E1,2.2E1,1.8E1,1.15E2,7.5E1,3.2E1,8.9E1,1.8E1,4.8E1,1E0,1.03E2,4.4E1,1.5E1,2E0,2.1E1,1.1E1,3E0,1.1E1,1E0,1.6E1,6E0,9E0,9E0,1.06E2,9E0,7.2E1,3E0,2.1E1,1.1E1,6.2E1,2.7E1,4.6E1,2E0,9.6E1,7E0,3.6E1,8E0,1E1,5E0],"tree_param":{"num_deleted":"0","num_feature":"7","num_nodes":"65","size_leaf_vector":"1"}},{"base_weights":[2.364556E-2,-8.0515E-1,1.0591639E0,-1.383343E0,-4.6199274E-1,8.6860675E-1,3.1389531E-1,-1.1590817E0,-2.0525794E0,-1.4050083E-1,-1.3401917E0,1.782062E-2,1.6531156E0,-9.6785086E-1,-1.8454187E0,-1.22996904E-1,-1.0172545E-2,1.9050786E-1,-1.3346536E0,-8.5091764E-1,-2.4450734E0,6.68364E-1,-7.645757E-1,2.5637507E0,5.9539604E-1,-1.1562549E0,-5.668138E-1,-9.870795E-2,-3.6486637E-2,-1.6192198E-1,1.8961254E0,-1.5890135E0,9.8888114E-2,-1.3461902E0,2.8510857E-1,-8.045867E-1,-1.3497658E-1,1.4517193E-1,8.484706E-2,-8.923336E-2,-5.2831453E-1,1.4842728E0,3.6530888E0,1.8234292E0,1.5308847E-1,-5.9422042E-2,-5.110895E-3,-3.383253E-2,1.7866296E-3,-3.4916643E-3,-1.2664181E-1,3.9931502E-2,2.8136915E-1,-5.497082E-2,-1.3365324E-1,-5.9042573E-2,-1.0460072E-1,-5.2104335E-2,3.8453944E-2,-4.6426076E-2,-3.319554E-3,-1.4057971E-2,1.4539959E-1,-3.564624E-2,-7.7181943E-3,1.9235574E-2,9.578265E-2,1.3040371E-1,2.5307867E-1,1.0835963E-1,5.4266304E-2,-5.331075E-3,9.403706E-2],"categories":[],"categories_nodes":[],"categories_segments":[],"categories_sizes":[],"default_left":[0,0,0,0,0,0,0,0,0,0,0,0,0,0,0,0,0,0,0,0,0,0,0,0,0,0,0,0,0,0,0,0,0,0,0,0,0,0,0,0,0,0,0,0,0,0,0,0,0,0,0,0,0,0,0,0,0,0,0,0,0,0,0,0,0,0,0,0,0,0,0,0,0],"id":7,"left_children":[1,3,5,7,9,11,-1,13,15,17,19,21,23,25,27,-1,-1,29,31,33,35,37,39,41,43,45,47,-1,-1,49,51,53,-1,55,57,59,-1,61,-1,-1,63,65,67,69,71,-1,-1,-1,-1,-1,-1,-1,-1,-1,-1,-1,-1,-1,-1,-1,-1,-1,-1,-1,-1,-1,-1,-1,-1,-1,-1,-1,-1],"loss_changes":[5.5963873E2,7.063211E1,2.8079904E2,1.6768646E1,6.402196E1,1.8702252E2,0E0,1.0888565E1,2.280478E1,6.739898E1,2.990664E1,6.970381E1,1.3815253E2,5.0989227E0,7.64534E-1,0E0,0E0,8.077499E1,3.420025E1,2.545841E1,4.2905884E0,3.956178E1,1.3305737E1,8.475812E1,3.6606514E1,1.3572159E0,2.135723E0,0E0,0E0,2.327744E1,8.776387E1,1.4505638E1,0E0,3.705063E-1,9.712068E0,5.8333874E-3,0E0,6.1677364E1,0E0,0E0,3.2195883E0,1.8020393E1,4.042984E1,1.2393227E0,2.4064573E1,0E0,0E0,0E0,0E0,0E0,0E0,0E0,0E0,0E0,0E0,0E0,0E0,0E0,0E0,0E0,0E0,0E0,0E0,0E0,0E0,0E0,0E0,0E0,0E0,0E0,0E0,0E0,0E0],"parents":[2147483647,0,0,1,1,2,2,3,3,4,4,5,5,7,7,8,8,9,9,10,10,11,11,12,12,13,13,14,14,17,17,18,18,19,19,20,20,21,21,22,22,23,23,24,24,25,25,26,26,29,29,30,30,31,31,33,33,34,34,35,35,37,37,40,40,41,41,42,42,43,43,44,44],"right_children":[2,4,6,8,10,12,-1,14,16,18,20,22,24,26,28,-1,-1,30,32,34,36,38,40,42,44,46,48,-1,-1,50,52,54,-1,56,58,60,-1,62,-1,-1,64,66,68,70,72,-1,-1,-1,-1,-1,-1,-1,-1,-1,-1,-1,-1,-1,-1,-1,-1,-1,-1,-1,-1,-1,-1,-1,-1,-1,-1,-1,-1],"split_conditions":[1E0,3.959E2,8.4E1,1.794E2,1.89E2,4.014E2,3.1389531E-1,3.6E2,3.7E-1,5.201E2,6.25E1,1.792E2,1.81E0,6.3E-1,3.675E0,-1.22996904E-1,-1.0172545E-2,6.6E-1,5.6E2,4.992E2,1.945E2,1.5E0,3.359E2,4.818E2,1.625E2,6.08E0,8.0645164E1,-9.870795E-2,-3.6486637E-2,9.5E1,8.0645164E1,4.03E0,9.8888114E-2,4.804E2,1.945E2,4.9E-1,-1.3497658E-1,1.772E2,8.484706E-2,-8.923336E-2,1.02E0,4.7E1,1.376E2,1.56E2,2.062E2,-5.9422042E-2,-5.110895E-3,-3.383253E-2,1.7866296E-3,-3.4916643E-3,-1.2664181E-1,3.9931502E-2,2.8136915E-1,-5.497082E-2,-1.3365324E-1,-5.9042573E-2,-1.0460072E-1,-5.2104335E-2,3.8453944E-2,-4.6426076E-2,-3.319554E-3,-1.4057971E-2,1.4539959E-1,-3.564624E-2,-7.7181943E-3,1.9235574E-2,9.578265E-2,1.3040371E-1,2.5307867E-1,1.0835963E-1,5.4266304E-2,-5.331075E-3,9.403706E-2],"split_indices":[5,0,6,3,3,0,0,0,4,0,6,3,4,5,4,0,0,5,0,0,3,5,0,0,3,4,6,0,0,6,6,4,0,0,3,5,0,3,0,0,5,6,3,3,3,0,0,0,0,0,0,0,0,0,0,0,0,0,0,0,0,0,0,0,0,0,0,0,0,0,0,0,0],"split_type":[0,0,0,0,0,0,0,0,0,0,0,0,0,0,0,0,0,0,0,0,0,0,0,0,0,0,0,0,0,0,0,0,0,0,0,0,0,0,0,0,0,0,0,0,0,0,0,0,0,0,0,0,0,0,0,0,0,0,0,0,0,0,0,0,0,0,0,0,0,0,0,0,0],"sum_hessian":[6.5E2,3.61E2,2.89E2,1.33E2,2.28E2,2.8E2,9E0,1.02E2,3.1E1,1.68E2,6E1,1.35E2,1.45E2,8.2E1,2E1,2.5E1,6E0,1.32E2,3.6E1,4.3E1,1.7E1,7.4E1,6.1E1,7.7E1,6.8E1,5.4E1,2.8E1,1.7E1,3E0,1.1E2,2.2E1,3.4E1,2E0,3E1,1.3E1,3E0,1.4E1,5E1,2.4E1,1E1,5.1E1,4E1,3.7E1,1.7E1,5.1E1,5.2E1,2E0,2.4E1,4E0,1.07E2,3E0,1.8E1,4E0,2.5E1,9E0,2.7E1,3E0,3E0,1E1,2E0,1E0,4.4E1,6E0,3.3E1,1.8E1,1.2E1,2.8E1,2.3E1,1.4E1,1E1,7E0,4.5E1,6E0],"tree_param":{"num_deleted":"0","num_feature":"7","num_nodes":"73","size_leaf_vector":"1"}},{"base_weights":[3.6020692E-2,-9.648374E-1,7.5198466E-1,-5.309906E-1,-1.4219692E0,1.6312649E0,8.164873E-2,-1.3516698E0,-2.2606869E-1,-4.3186373E-1,-1.613337E0,9.549046E-1,2.652513E0,3.2163814E-1,-5.550306E-3,-8.030792E-2,-4.4130653E-2,-6.355594E-1,4.2132065E-1,-1.6302758E0,5.923207E-1,-1.6741933E0,1.0152677E0,4.1550097E-1,8.97036E-2,1.8031328E0,3.927396E0,-4.3282223E-1,1.0578803E0,-7.751884E-1,1.20425165E-1,7.241506E-1,-8.8087165E-1,-3.315881E-2,-1.0226538E-1,4.691299E-2,-0E0,-1.1339016E0,-1.892803E0,-0E0,7.070518E-2,-5.7253122E-2,9.8208344E-1,2.6925788E0,9.769323E-1,2.1824591E-1,1.7644228E0,6.96163E-1,-8.2098246E-1,2.5697937E0,2.7466835E-2,-4.188579E-2,1.4075962E-2,-0E0,4.745138E-2,6.1920327E-3,-9.957721E-2,8.582055E-3,-1.660288E-2,-7.677234E-2,7.210748E-2,-1.18484E-1,-7.759521E-2,-4.86893E-2,4.13721E-3,5.5818435E-2,2.7120418E-3,4.924129E-2,1.6909699E-1,-5.174424E-2,6.7272455E-2,1.2803556E-1,7.281969E-4,7.124402E-2,2.1447932E-2,-3.0074386E-2,-7.91942E-2,6.573979E-2,1.8020192E-1,4.2418104E-2,-5.6776833E-2],"categories":[],"categories_nodes":[],"categories_segments":[],"categories_sizes":[],"default_left":[0,0,0,0,0,0,0,0,0,0,0,0,0,0,0,0,0,0,0,0,0,0,0,0,0,0,0,0,0,0,0,0,0,0,0,0,0,0,0,0,0,0,0,0,0,0,0,0,0,0,0,0,0,0,0,0,0,0,0,0,0,0,0,0,0,0,0,0,0,0,0,0,0,0,0,0,0,0,0,0,0],"id":8,"left_children":[1,3,5,7,9,11,13,15,17,19,21,23,25,-1,27,-1,-1,29,31,33,35,37,39,41,-1,43,45,47,49,51,-1,53,55,-1,-1,-1,57,59,61,-1,-1,63,65,67,69,-1,71,73,75,77,79,-1,-1,-1,-1,-1,-1,-1,-1,-1,-1,-1,-1,-1,-1,-1,-1,-1,-1,-1,-1,-1,-1,-1,-1,-1,-1,-1,-1,-1,-1],"loss_changes":[4.6930386E2,5.280185E1,2.2450879E2,3.4755623E1,2.3700317E1,1.1035562E2,1.2269467E2,2.3718033E0,2.8167534E1,2.9507116E1,1.9493805E1,4.4309326E1,6.1585175E1,0E0,9.841515E1,0E0,0E0,2.9004616E1,1.6758923E1,2.2462044E0,2.4816823E0,9.701965E0,9.0707207E-1,1.7208488E1,0E0,2.6397964E1,1.4118347E1,6.8534195E1,9.5739784E1,4.565304E0,0E0,5.587591E0,9.734196E0,0E0,0E0,0E0,3.6782777E-1,3.7411957E1,7.3385315E0,0E0,0E0,4.8388124E0,3.2015343E0,1.7727264E1,1.8537487E1,0E0,7.550478E0,6.62129E0,1.7816246E1,2.6235153E1,3.715595E1,0E0,0E0,0E0,0E0,0E0,0E0,0E0,0E0,0E0,0E0,0E0,0E0,0E0,0E0,0E0,0E0,0E0,0E0,0E0,0E0,0E0,0E0,0E0,0E0,0E0,0E0,0E0,0E0,0E0,0E0],"parents":[2147483647,0,0,1,1,2,2,3,3,4,4,5,5,6,6,7,7,8,8,9,9,10,10,11,11,12,12,14,14,17,17,18,18,19,19,20,20,21,21,22,22,23,23,25,25,26,26,27,27,28,28,29,29,31,31,32,32,36,36,37,37,38,38,41,41,42,42,43,43,44,44,46,46,47,47,48,48,49,49,50,50],"right_children":[2,4,6,8,10,12,14,16,18,20,22,24,26,-1,28,-1,-1,30,32,34,36,38,40,42,-1,44,46,48,50,52,-1,54,56,-1,-1,-1,58,60,62,-1,-1,64,66,68,70,-1,72,74,76,78,80,-1,-1,-1,-1,-1,-1,-1,-1,-1,-1,-1,-1,-1,-1,-1,-1,-1,-1,-1,-1,-1,-1,-1,-1,-1,-1,-1,-1,-1,-1],"split_conditions":[6.6E-1,1.703E2,1.718E2,4E2,6.513E2,4.6E2,5.9E2,8.037E2,7.502E2,6.29E2,6.6E2,1.01E0,1.01E0,3.2163814E-1,8.23E2,-8.030792E-2,-4.4130653E-2,5.6E2,9.07E2,4.014E2,3E-1,1.782E2,1.9E-1,4.014E2,8.97036E-2,5.201E2,1.8E0,1.74E2,8.47E2,5.0955415E-1,1.20425165E-1,4.014E2,1.576E2,-3.315881E-2,-1.0226538E-1,4.691299E-2,1.862E2,1.778E2,3.821656E-1,-0E0,7.070518E-2,7.34E2,9E2,7.6E-1,5.357E2,2.1824591E-1,5.12E2,5.201E2,8E-2,8.41E2,1.999E2,-4.188579E-2,1.4075962E-2,-0E0,4.745138E-2,6.1920327E-3,-9.957721E-2,8.582055E-3,-1.660288E-2,-7.677234E-2,7.210748E-2,-1.18484E-1,-7.759521E-2,-4.86893E-2,4.13721E-3,5.5818435E-2,2.7120418E-3,4.924129E-2,1.6909699E-1,-5.174424E-2,6.7272455E-2,1.2803556E-1,7.281969E-4,7.124402E-2,2.1447932E-2,-3.0074386E-2,-7.91942E-2,6.573979E-2,1.8020192E-1,4.2418104E-2,-5.6776833E-2],"split_indices":[5,3,3,0,2,0,2,2,2,2,0,5,5,0,2,0,0,0,2,0,5,3,5,0,0,0,4,3,2,5,0,0,3,0,0,0,3,3,5,0,0,2,2,5,0,0,0,0,4,2,3,0,0,0,0,0,0,0,0,0,0,0,0,0,0,0,0,0,0,0,0,0,0,0,0,0,0,0,0,0,0],"split_type":[0,0,0,0,0,0,0,0,0,0,0,0,0,0,0,0,0,0,0,0,0,0,0,0,0,0,0,0,0,0,0,0,0,0,0,0,0,0,0,0,0,0,0,0,0,0,0,0,0,0,0,0,0,0,0,0,0,0,0,0,0,0,0,0,0,0,0,0,0,0,0,0,0,0,0,0,0,0,0,0,0],"sum_hessian":[6.53E2,2.72E2,3.81E2,1.41E2,1.31E2,1.64E2,2.17E2,3.7E1,1.04E2,2.2E1,1.09E2,1E2,6.4E1,2E0,2.15E2,2.2E1,1.5E1,6.4E1,4E1,1E1,1.2E1,1.07E2,2E0,6.2E1,3.8E1,4E1,2.4E1,1.54E2,6.1E1,6.2E1,2E0,3.3E1,7E0,4E0,6E0,7E0,5E0,3.3E1,7.4E1,1E0,1E0,3.4E1,2.8E1,1.8E1,2.2E1,1.9E1,5E0,3.9E1,1.15E2,2.4E1,3.7E1,5.9E1,3E0,8E0,2.5E1,4E0,3E0,4E0,1E0,2.9E1,4E0,2.8E1,4.6E1,4E0,3E1,2.4E1,4E0,6E0,1.2E1,3E0,1.9E1,3E0,2E0,9E0,3E1,9.1E1,2.4E1,1.2E1,1.2E1,2.2E1,1.5E1],"tree_param":{"num_deleted":"0","num_feature":"7","num_nodes":"81","size_leaf_vector":"1"}},{"base_weights":[-6.412695E-2,-1.0302217E0,6.799895E-1,-1.4105837E-1,-1.2213122E0,1.2755773E0,1.8296815E-2,-3.9261875E-1,1.0711322E0,-3.0582348E-1,-1.3784935E0,8.13488E-1,2.1222224E0,3.4575418E-1,-1.3863102E-1,-7.659883E-1,-3.7061263E-2,-0E0,5.9247106E-2,-1.3820255E0,7.140428E-1,-1.2819165E0,-1.3798545E-1,3.3630544E-1,1.3271754E0,1.8667892E-1,1.5900729E0,-3.3403397E-1,3.9202342E0,-1.0046866E0,-1.5137936E-2,-1.8007211E-1,1.8599166E-2,-9.87448E-3,-7.1122E-2,8.242912E-2,4.170302E-1,-1.3895246E0,1.6715401E0,5.4270035E-1,-3.496467E-1,6.9099784E-1,1.8032281E0,2.6168933E0,1.396928E0,-8.087144E-1,5.20958E-1,2.200301E-1,6.4414903E-3,-0E0,-5.884543E-2,-0E0,-2.3803692E-2,4.2485308E-2,-4.2179506E-3,-4.5408778E-2,-8.191243E-2,1.252124E-1,-8.674307E-3,7.810282E-2,1.3116859E-2,-7.881484E-2,1.6197426E-2,1.0988014E-2,4.116633E-2,1.0335951E-1,-3.0914202E-2,1.8528813E-1,6.9009654E-2,7.770628E-2,2.6359538E-2,-2.7836967E-2,-9.719635E-2,5.224687E-2,-4.241107E-2],"categories":[],"categories_nodes":[],"categories_segments":[],"categories_sizes":[],"default_left":[0,0,0,0,0,0,0,0,0,0,0,0,0,0,0,0,0,0,0,0,0,0,0,0,0,0,0,0,0,0,0,0,0,0,0,0,0,0,0,0,0,0,0,0,0,0,0,0,0,0,0,0,0,0,0,0,0,0,0,0,0,0,0,0,0,0,0,0,0,0,0,0,0,0,0],"id":9,"left_children":[1,3,5,7,9,11,13,15,17,19,21,23,25,-1,27,29,31,-1,-1,33,35,37,-1,39,41,-1,43,45,47,49,-1,51,-1,-1,-1,-1,53,55,57,59,61,63,65,67,69,71,73,-1,-1,-1,-1,-1,-1,-1,-1,-1,-1,-1,-1,-1,-1,-1,-1,-1,-1,-1,-1,-1,-1,-1,-1,-1,-1,-1,-1],"loss_changes":[4.723955E2,4.801346E1,1.4579817E2,1.6073826E1,3.28891E1,7.3681885E1,1.9455829E2,5.5718875E0,9.0678596E-1,4.0700176E1,2.1928558E1,3.0430313E1,5.0774994E1,0E0,1.382355E2,1.6256037E0,1.413358E0,0E0,0E0,9.480286E-2,3.9666386E0,6.2305237E1,0E0,9.874907E0,1.6479813E1,0E0,5.6514893E0,6.828424E1,1.2644394E1,2.1141148E0,0E0,9.7043073E-1,0E0,0E0,0E0,0E0,3.7723095E0,1.9657593E1,1.1888254E1,1.4189758E1,1.4106594E1,1.2521706E0,2.3445145E1,2.7857819E0,4.982155E0,2.9060417E1,4.3990654E1,0E0,0E0,0E0,0E0,0E0,0E0,0E0,0E0,0E0,0E0,0E0,0E0,0E0,0E0,0E0,0E0,0E0,0E0,0E0,0E0,0E0,0E0,0E0,0E0,0E0,0E0,0E0,0E0],"parents":[2147483647,0,0,1,1,2,2,3,3,4,4,5,5,6,6,7,7,8,8,9,9,10,10,11,11,12,12,14,14,15,15,16,16,19,19,20,20,21,21,23,23,24,24,26,26,27,27,28,28,29,29,31,31,36,36,37,37,38,38,39,39,40,40,41,41,42,42,43,43,44,44,45,45,46,46],"right_children":[2,4,6,8,10,12,14,16,18,20,22,24,26,-1,28,30,32,-1,-1,34,36,38,-1,40,42,-1,44,46,48,50,-1,52,-1,-1,-1,-1,54,56,58,60,62,64,66,68,70,72,74,-1,-1,-1,-1,-1,-1,-1,-1,-1,-1,-1,-1,-1,-1,-1,-1,-1,-1,-1,-1,-1,-1,-1,-1,-1,-1,-1,-1],"split_conditions":[6.6E-1,1.573E2,1.723E2,5.72E0,6.513E2,1.01E0,5.9E2,7.44E2,2E-1,6.43E2,9.5E1,7E1,1.376E2,3.4575418E-1,8.0645164E1,6.504065E1,6.6E1,-0E0,5.9247106E-2,1.578E2,6.49E2,8.5E1,-1.3798545E-1,7.47E2,7.166E2,1.8667892E-1,1E-2,7.68E2,8.913E2,1.33E2,-1.5137936E-2,7.59E2,1.8599166E-2,-9.87448E-3,-7.1122E-2,8.242912E-2,3E-1,1.696E2,8.44E2,7.7E-1,7.982E2,6.733E2,9.016E2,6.484E2,1.581E2,8E-2,9.08E2,2.200301E-1,6.4414903E-3,-0E0,-5.884543E-2,-0E0,-2.3803692E-2,4.2485308E-2,-4.2179506E-3,-4.5408778E-2,-8.191243E-2,1.252124E-1,-8.674307E-3,7.810282E-2,1.3116859E-2,-7.881484E-2,1.6197426E-2,1.0988014E-2,4.116633E-2,1.0335951E-1,-3.0914202E-2,1.8528813E-1,6.9009654E-2,7.770628E-2,2.6359538E-2,-2.7836967E-2,-9.719635E-2,5.224687E-2,-4.241107E-2],"split_indices":[5,3,3,4,2,5,2,2,5,2,6,6,3,0,6,6,6,0,0,3,2,6,0,2,2,0,4,2,2,3,0,2,0,0,0,0,5,3,2,4,2,2,2,2,3,4,2,0,0,0,0,0,0,0,0,0,0,0,0,0,0,0,0,0,0,0,0,0,0,0,0,0,0,0,0],"split_type":[0,0,0,0,0,0,0,0,0,0,0,0,0,0,0,0,0,0,0,0,0,0,0,0,0,0,0,0,0,0,0,0,0,0,0,0,0,0,0,0,0,0,0,0,0,0,0,0,0,0,0,0,0,0,0,0,0,0,0,0,0,0,0,0,0,0,0,0,0,0,0,0,0,0,0],"sum_hessian":[6.55E2,2.85E2,3.7E2,5.1E1,2.34E2,1.94E2,1.76E2,4.3E1,8E0,3.5E1,1.99E2,1.27E2,6.7E1,3E0,1.73E2,2E1,2.3E1,1E0,7E0,1.7E1,1.8E1,1.88E2,1.1E1,6.7E1,6E1,1.5E1,5.2E1,1.66E2,7E0,1.2E1,8E0,1.8E1,5E0,1E0,1.6E1,3E0,1.5E1,1.82E2,6E0,5.2E1,1.5E1,2.7E1,3.3E1,6E0,4.6E1,1.07E2,5.9E1,6E0,1E0,2E0,1E1,1.2E1,6E0,8E0,7E0,6.4E1,1.18E2,4E0,2E0,1E1,4.2E1,5E0,1E1,7E0,2E1,3E1,3E0,2E0,4E0,3.8E1,8E0,8.9E1,1.8E1,4.3E1,1.6E1],"tree_param":{"num_deleted":"0","num_feature":"7","num_nodes":"75","size_leaf_vector":"1"}},{"base_weights":[7.529557E-3,-8.904841E-1,6.917126E-1,-4.8318222E-1,-1.2530282E0,5.031408E-1,4.726494E0,-6.322316E-1,9.984719E-1,-2.8621742E-1,-1.4632224E0,1.1402783E0,-2.079733E-1,5.5014386E0,-6.237271E-1,-1.0971885E0,-0E0,2.2631896E-1,1.3021182E-1,-8.339497E-2,4.039344E-1,-1.616894E0,-1.0089078E0,6.605925E-1,2.2567675E0,3.3278838E-1,-3.681302E-1,1.7379345E0,2.9618376E-1,6.2804506E-3,-6.0559984E-2,-1.6503452E0,-8.8456047E-1,-4.0136743E-1,5.8745325E-1,1.2062128E-1,-1.0123589E0,4.259954E-2,-9.93211E-2,-1.2027205E0,-1.10971086E-1,-7.123914E-1,-1.13666944E-1,2.9029542E-1,1.0556091E0,1.7451832E-1,1.8161641E0,-7.4968785E-1,3.160799E-1,-0E0,1.3652013E-1,-8.495032E-2,-1.1861078E-2,1.3188355E-2,-4.5784473E-2,-9.168556E-3,-4.644915E-2,1.0575212E-2,3.769296E-2,-2.4082595E-2,-7.297089E-2,-8.001207E-3,3.6751553E-3,-6.669053E-2,4.1922983E-3,-4.963638E-2,6.414879E-2,2.4518568E-2,-1.8998828E-2,-4.583729E-2,6.0124137E-2,1.6119568E-1,7.760488E-2,-2.678336E-2,-9.419697E-2,-2.7026266E-2,3.7199985E-2],"categories":[],"categories_nodes":[],"categories_segments":[],"categories_sizes":[],"default_left":[0,0,0,0,0,0,0,0,0,0,0,0,0,0,0,0,0,0,0,0,0,0,0,0,0,0,0,0,0,0,0,0,0,0,0,0,0,0,0,0,0,0,0,0,0,0,0,0,0,0,0,0,0,0,0,0,0,0,0,0,0,0,0,0,0,0,0,0,0,0,0,0,0,0,0,0,0],"id":10,"left_children":[1,3,5,7,9,11,13,15,17,19,21,23,25,27,29,31,33,35,-1,-1,37,39,41,43,45,-1,47,49,-1,-1,-1,51,53,55,57,-1,59,-1,61,63,-1,65,-1,67,69,-1,71,73,75,-1,-1,-1,-1,-1,-1,-1,-1,-1,-1,-1,-1,-1,-1,-1,-1,-1,-1,-1,-1,-1,-1,-1,-1,-1,-1,-1,-1],"loss_changes":[4.1650897E2,4.2139526E1,2.889787E2,3.1438946E1,3.0351929E1,1.6770242E2,7.5378845E1,3.7919113E1,1.4680092E1,2.870645E1,6.377716E0,1.0206897E2,1.9293712E2,1.1242889E1,1.798458E0,6.48333E0,1.3253492E1,2.994108E1,0E0,0E0,4.820159E0,1.926271E1,1.0607132E1,1.947554E1,2.3593567E1,0E0,4.5270325E1,5.8489475E0,0E0,0E0,0E0,3.2261276E-1,2.4388924E0,3.2915473E0,9.8982954E-1,0E0,3.755479E-1,0E0,1.4262813E-1,1.010022E1,0E0,1.7967781E1,0E0,1.0009133E1,2.0307426E1,0E0,1.02916565E1,2.521056E1,2.318981E1,0E0,0E0,0E0,0E0,0E0,0E0,0E0,0E0,0E0,0E0,0E0,0E0,0E0,0E0,0E0,0E0,0E0,0E0,0E0,0E0,0E0,0E0,0E0,0E0,0E0,0E0,0E0,0E0],"parents":[2147483647,0,0,1,1,2,2,3,3,4,4,5,5,6,6,7,7,8,8,9,9,10,10,11,11,12,12,13,13,14,14,15,15,16,16,17,17,20,20,21,21,22,22,23,23,24,24,26,26,27,27,31,31,32,32,33,33,34,34,36,36,38,38,39,39,41,41,43,43,44,44,46,46,47,47,48,48],"right_children":[2,4,6,8,10,12,14,16,18,20,22,24,26,28,30,32,34,36,-1,-1,38,40,42,44,46,-1,48,50,-1,-1,-1,52,54,56,58,-1,60,-1,62,64,-1,66,-1,68,70,-1,72,74,76,-1,-1,-1,-1,-1,-1,-1,-1,-1,-1,-1,-1,-1,-1,-1,-1,-1,-1,-1,-1,-1,-1,-1,-1,-1,-1,-1,-1],"split_conditions":[6.6E-1,1.703E2,8.4E1,1.65E2,6.513E2,1.74E2,8.921E2,4E0,8.0645164E1,6.29E2,8E1,1.11E0,5.9E2,9.1E-1,8.93E2,3.8E-1,8.251E2,6.484E2,1.3021182E-1,-8.339497E-2,3E-1,6.25E1,1.065E3,7E1,1.376E2,3.3278838E-1,7.68E2,7E-1,2.9618376E-1,6.2804506E-3,-6.0559984E-2,3.9E0,1.33E2,1.42E2,5.72E0,1.2062128E-1,1.696E2,4.259954E-2,6.51E2,2.062E2,-1.10971086E-1,8.5E1,-1.13666944E-1,7.47E2,7E-1,1.7451832E-1,1E-2,8E-2,8.9E-1,-0E0,1.3652013E-1,-8.495032E-2,-1.1861078E-2,1.3188355E-2,-4.5784473E-2,-9.168556E-3,-4.644915E-2,1.0575212E-2,3.769296E-2,-2.4082595E-2,-7.297089E-2,-8.001207E-3,3.6751553E-3,-6.669053E-2,4.1922983E-3,-4.963638E-2,6.414879E-2,2.4518568E-2,-1.8998828E-2,-4.583729E-2,6.0124137E-2,1.6119568E-1,7.760488E-2,-2.678336E-2,-9.419697E-2,-2.7026266E-2,3.7199985E-2],"split_indices":[5,3,6,3,2,3,2,4,6,2,6,5,2,4,2,5,2,2,0,0,5,6,2,6,3,0,2,5,0,0,0,4,3,3,4,0,3,0,2,3,0,6,0,2,5,0,4,4,5,0,0,0,0,0,0,0,0,0,0,0,0,0,0,0,0,0,0,0,0,0,0,0,0,0,0,0,0],"split_type":[0,0,0,0,0,0,0,0,0,0,0,0,0,0,0,0,0,0,0,0,0,0,0,0,0,0,0,0,0,0,0,0,0,0,0,0,0,0,0,0,0,0,0,0,0,0,0,0,0,0,0,0,0,0,0,0,0,0,0,0,0,0,0,0,0,0,0,0,0,0,0,0,0,0,0,0,0],"sum_hessian":[6.76E2,2.92E2,3.84E2,1.39E2,1.53E2,3.68E2,1.6E1,1.27E2,1.2E1,2.8E1,1.25E2,1.94E2,1.74E2,1.4E1,2E0,7.3E1,5.4E1,9E0,3E0,9E0,1.9E1,9.1E1,3.4E1,1.37E2,5.7E1,3E0,1.71E2,2E0,1.2E1,1E0,1E0,1.8E1,5.5E1,3.2E1,2.2E1,3E0,6E0,1E1,9E0,5.6E1,3.5E1,2.9E1,5E0,7.2E1,6.5E1,1.3E1,4.4E1,1.1E2,6.1E1,1E0,1E0,1.7E1,1E0,1E0,5.4E1,2.4E1,8E0,8E0,1.4E1,4E0,2E0,8E0,1E0,5.1E1,5E0,2.6E1,3E0,5.6E1,1.6E1,4E0,6.1E1,5E0,3.9E1,9.4E1,1.6E1,2E1,4.1E1],"tree_param":{"num_deleted":"0","num_feature":"7","num_nodes":"77","size_leaf_vector":"1"}},{"base_weights":[3.188391E-2,-8.2836586E-1,7.09238E-1,-8.782366E-1,2.0301723E0,4.992648E-1,4.391433E0,-1.2542914E-1,-1.0898451E0,1.6549751E-3,1.2230828E-1,-1.9651629E-1,1.25824E0,4.7832813E0,-5.904599E-2,6.2040645E-1,-4.763892E-1,-1.8427712E0,-9.4647676E-1,2.7043793E-1,-7.5698596E-1,2.2237425E0,8.768345E-1,2.8722802E-1,1.0750438E0,-6.307103E-1,8.959394E-1,-6.860183E-1,-9.7778864E-2,-2.2876065E0,-1.2084085E0,-1.0886112E0,2.2612915E0,-1.09911144E-1,6.6242464E-2,-1.4284632E0,-5.908793E-1,1.3867608E0,1.692753E-1,6.773378E-1,2.9336653E0,-0E0,1.3310711E-1,-0E0,-4.2790037E-2,1.5891416E-2,5.426667E-2,-4.530191E-2,-1.5524511E-2,-5.6161728E-2,4.6915426E-3,-0E0,-1.2124037E-1,-8.260953E-2,2.3049256E-2,-6.824335E-2,-3.5590183E-2,-4.1425987E-3,1.3254313E-1,-1.8559493E-2,4.43847E-2,-7.5028814E-2,-2.9720233E-3,-2.3833236E-2,-7.294547E-2,1.0385435E-1,3.1500287E-2,2.4223287E-2,1.5071449E-1,2.4371063E-2,3.203088E-1,-3.233388E-3,6.12344E-3],"categories":[],"categories_nodes":[],"categories_segments":[],"categories_sizes":[],"default_left":[0,0,0,0,0,0,0,0,0,0,0,0,0,0,0,0,0,0,0,0,0,0,0,0,0,0,0,0,0,0,0,0,0,0,0,0,0,0,0,0,0,0,0,0,0,0,0,0,0,0,0,0,0,0,0,0,0,0,0,0,0,0,0,0,0,0,0,0,0,0,0,0,0],"id":11,"left_children":[1,3,5,7,9,11,13,15,17,-1,-1,19,21,23,-1,25,27,29,31,33,35,37,39,-1,41,43,45,47,49,51,53,55,57,59,-1,61,63,65,-1,67,69,71,-1,-1,-1,-1,-1,-1,-1,-1,-1,-1,-1,-1,-1,-1,-1,-1,-1,-1,-1,-1,-1,-1,-1,-1,-1,-1,-1,-1,-1,-1,-1],"loss_changes":[3.705623E2,4.135347E1,2.7158606E2,4.3465652E1,3.3290977E0,1.7905704E2,4.8216248E1,1.6481379E1,2.0627426E1,0E0,0E0,4.6674004E1,5.6776123E1,5.59422E1,0E0,7.5391245E0,3.1105947E0,5.498993E0,8.554587E1,3.9411404E1,7.584633E0,3.763031E1,4.534868E1,0E0,8.395408E0,6.0600245E-1,1.0954437E0,1.5845642E0,3.7544985E0,5.7581635E0,1.2972544E1,1.6726242E1,8.295715E0,1.8941568E1,0E0,9.236641E-1,5.3664093E0,1.2506718E1,0E0,4.6619926E1,7.975551E1,4.254297E-2,0E0,0E0,0E0,0E0,0E0,0E0,0E0,0E0,0E0,0E0,0E0,0E0,0E0,0E0,0E0,0E0,0E0,0E0,0E0,0E0,0E0,0E0,0E0,0E0,0E0,0E0,0E0,0E0,0E0,0E0,0E0],"parents":[2147483647,0,0,1,1,2,2,3,3,4,4,5,5,6,6,7,7,8,8,11,11,12,12,13,13,15,15,16,16,17,17,18,18,19,19,20,20,21,21,22,22,24,24,25,25,26,26,27,27,28,28,29,29,30,30,31,31,32,32,33,33,35,35,36,36,37,37,39,39,40,40,41,41],"right_children":[2,4,6,8,10,12,14,16,18,-1,-1,20,22,24,-1,26,28,30,32,34,36,38,40,-1,42,44,46,48,50,52,54,56,58,60,-1,62,64,66,-1,68,70,72,-1,-1,-1,-1,-1,-1,-1,-1,-1,-1,-1,-1,-1,-1,-1,-1,-1,-1,-1,-1,-1,-1,-1,-1,-1,-1,-1,-1,-1,-1,-1],"split_conditions":[6.6E-1,6.6E2,8.4E1,1.573E2,1.9E-1,4.137E2,4.875E2,1.0478E3,8.474E2,1.6549751E-3,1.2230828E-1,1.79E2,1.573E2,9.639E2,-5.904599E-2,4.014E2,1.1097E3,5.492E2,8.5E1,1.5E0,3.359E2,1.11E0,1.127E3,2.8722802E-1,7E-1,9.289E2,4.38E2,6.504065E1,3.7E2,3.484E2,6.06E2,4.014E2,3.251E2,1.751E2,6.6242464E-2,1.1449E3,2.33E2,5.201E2,1.692753E-1,6.6E2,4.4E2,3.251E2,1.3310711E-1,-0E0,-4.2790037E-2,1.5891416E-2,5.426667E-2,-4.530191E-2,-1.5524511E-2,-5.6161728E-2,4.6915426E-3,-0E0,-1.2124037E-1,-8.260953E-2,2.3049256E-2,-6.824335E-2,-3.5590183E-2,-4.1425987E-3,1.3254313E-1,-1.8559493E-2,4.43847E-2,-7.5028814E-2,-2.9720233E-3,-2.3833236E-2,-7.294547E-2,1.0385435E-1,3.1500287E-2,2.4223287E-2,1.5071449E-1,2.4371063E-2,3.203088E-1,-3.233388E-3,6.12344E-3],"split_indices":[5,0,6,3,5,0,0,1,1,0,0,3,3,1,0,0,1,0,6,5,0,5,1,0,5,1,0,6,0,0,1,0,0,3,0,1,3,0,0,0,0,0,0,0,0,0,0,0,0,0,0,0,0,0,0,0,0,0,0,0,0,0,0,0,0,0,0,0,0,0,0,0,0],"split_type":[0,0,0,0,0,0,0,0,0,0,0,0,0,0,0,0,0,0,0,0,0,0,0,0,0,0,0,0,0,0,0,0,0,0,0,0,0,0,0,0,0,0,0,0,0,0,0,0,0,0,0,0,0,0,0,0,0,0,0,0,0,0,0,0,0,0,0,0,0,0,0,0,0],"sum_hessian":[6.34E2,2.79E2,3.55E2,2.75E2,4E0,3.37E2,1.8E1,6.1E1,2.14E2,1E0,3E0,1.76E2,1.61E2,1.7E1,1E0,1.9E1,4.2E1,3.2E1,1.82E2,9.6E1,8E1,4.4E1,1.17E2,1.3E1,4E0,3E0,1.6E1,2.6E1,1.6E1,1.7E1,1.5E1,1.75E2,7E0,7.1E1,2.5E1,1.4E1,6.6E1,2.7E1,1.7E1,1.08E2,9E0,3E0,1E0,1E0,2E0,5E0,1.1E1,1.5E1,1.1E1,2E0,1.4E1,1E0,1.6E1,1.2E1,3E0,9.9E1,7.6E1,1E0,6E0,5.7E1,1.4E1,1.3E1,1E0,6E1,6E0,1.3E1,1.4E1,1.01E2,7E0,6E0,3E0,2E0,1E0],"tree_param":{"num_deleted":"0","num_feature":"7","num_nodes":"73","size_leaf_vector":"1"}},{"base_weights":[-4.421577E-3,-3.4881485E-1,7.0038676E-1,1.4541653E-1,-7.808046E-1,8.576268E-1,-1.15463905E-1,1.464188E-1,1.8590411E-2,-1.4827628E0,-3.4483808E-1,5.157491E-1,3.863121E0,1.6477017E0,-9.197592E-2,-1.1154507E0,-1.0912247E-1,2.6188233E-1,-4.584613E-1,1.5757011E0,1.9798413E-1,2.3735456E-1,1.3741679E0,-1.2805323E-2,1.8526945E0,-4.631012E-1,2.3299563E-1,-3.5271894E-2,-1.8152267E0,-1.7248966E-1,-1.4714067E0,1.792534E0,6.508992E-1,5.021445E-1,-8.482337E-2,-0E0,8.111047E-2,3.1218294E-2,1.0797151E-1,7.8603355E-3,-4.01264E-2,5.9162553E-2,8.402632E-3,-1.02713205E-1,-7.549622E-3,5.3177964E-2,-1.9925691E-2,-9.796459E-2,-4.211579E-2,9.741538E-2,4.3525316E-2,-7.242913E-3,4.5272287E-2,3.4090325E-2,-4.5502908E-3,3.3480877E-3,-3.165965E-2],"categories":[],"categories_nodes":[],"categories_segments":[],"categories_sizes":[],"default_left":[0,0,0,0,0,0,0,0,0,0,0,0,0,0,0,0,0,0,0,0,0,0,0,0,0,0,0,0,0,0,0,0,0,0,0,0,0,0,0,0,0,0,0,0,0,0,0,0,0,0,0,0,0,0,0,0,0],"id":12,"left_children":[1,3,5,7,9,11,-1,-1,13,15,17,19,21,23,25,27,-1,-1,29,31,33,-1,35,-1,37,39,41,-1,43,45,47,49,51,53,55,-1,-1,-1,-1,-1,-1,-1,-1,-1,-1,-1,-1,-1,-1,-1,-1,-1,-1,-1,-1,-1,-1],"loss_changes":[1.6131238E2,9.5739944E1,1.04711266E2,7.2828415E1,7.208165E1,2.1041632E2,0E0,0E0,3.6823364E1,1.9963516E1,9.5478195E1,6.247727E1,3.784366E1,6.026932E0,2.2971308E1,1.5752136E1,0E0,0E0,4.1835056E1,6.7228928E0,1.2726538E1,0E0,2.5710173E0,0E0,2.3378525E0,1.9058634E1,5.628717E0,0E0,7.780159E0,3.2632053E1,7.3307495E0,2.3416748E0,2.3849106E0,7.8055153E0,6.5380807E0,0E0,0E0,0E0,0E0,0E0,0E0,0E0,0E0,0E0,0E0,0E0,0E0,0E0,0E0,0E0,0E0,0E0,0E0,0E0,0E0,0E0,0E0],"parents":[2147483647,0,0,1,1,2,2,3,3,4,4,5,5,8,8,9,9,10,10,11,11,12,12,13,13,14,14,15,15,18,18,19,19,20,20,22,22,24,24,25,25,26,26,28,28,29,29,30,30,31,31,32,32,33,33,34,34],"right_children":[2,4,6,8,10,12,-1,-1,14,16,18,20,22,24,26,28,-1,-1,30,32,34,-1,36,-1,38,40,42,-1,44,46,48,50,52,54,56,-1,-1,-1,-1,-1,-1,-1,-1,-1,-1,-1,-1,-1,-1,-1,-1,-1,-1,-1,-1,-1,-1],"split_conditions":[8E1,1.74E2,9.5E1,8.22E2,1.856E2,8.4E1,-1.15463905E-1,1.464188E-1,1.375E2,1.751E2,5.561E2,1.573E2,9.639E2,3.2E1,4E0,1E-2,-1.0912247E-1,2.6188233E-1,6.25E1,1.0506E3,1.7E2,2.3735456E-1,9.65E2,-1.2805323E-2,9.127E2,1.0605E3,6.29E2,-3.5271894E-2,7.682E2,8.079E2,1.068E3,8.418E2,1.052E3,8.0645164E1,9.78E2,-0E0,8.111047E-2,3.1218294E-2,1.0797151E-1,7.8603355E-3,-4.01264E-2,5.9162553E-2,8.402632E-3,-1.02713205E-1,-7.549622E-3,5.3177964E-2,-1.9925691E-2,-9.796459E-2,-4.211579E-2,9.741538E-2,4.3525316E-2,-7.242913E-3,4.5272287E-2,3.4090325E-2,-4.5502908E-3,3.3480877E-3,-3.165965E-2],"split_indices":[6,3,6,1,3,6,0,0,3,3,2,3,1,6,4,4,0,0,6,1,3,0,1,0,1,1,2,0,2,1,1,2,1,6,1,0,0,0,0,0,0,0,0,0,0,0,0,0,0,0,0,0,0,0,0,0,0],"split_type":[0,0,0,0,0,0,0,0,0,0,0,0,0,0,0,0,0,0,0,0,0,0,0,0,0,0,0,0,0,0,0,0,0,0,0,0,0,0,0,0,0,0,0,0,0,0,0,0,0,0,0,0,0,0,0,0,0],"sum_hessian":[6.63E2,4.46E2,2.17E2,2.08E2,2.38E2,2.07E2,1E1,8E0,2E2,9E1,1.48E2,1.87E2,2E1,1.2E1,1.88E2,6.1E1,2.9E1,2E0,1.46E2,4.2E1,1.45E2,1.4E1,6E0,1E0,1.1E1,8.8E1,1E2,4E1,2.1E1,1.15E2,3.1E1,3.3E1,9E0,7E1,7.5E1,1E0,5E0,3E0,8E0,3.1E1,5.7E1,5E0,9.5E1,1.8E1,3E0,1.7E1,9.8E1,1.6E1,1.5E1,2.7E1,6E0,2E0,7E0,5.4E1,1.6E1,5.9E1,1.6E1],"tree_param":{"num_deleted":"0","num_feature":"7","num_nodes":"57","size_leaf_vector":"1"}},{"base_weights":[2.2811834E-2,-7.103573E-1,4.0209445E-1,-4.834978E-1,-1.7116376E0,5.4791945E-1,-1.4011229E0,-8.379098E-1,-4.173315E-2,2.2579476E-3,-1.7655339E0,3.8080266E-1,2.3680787E-1,-1.0676356E-1,-0E0,-7.574337E-1,-7.670601E-2,7.71227E-2,-8.050472E-2,-1.0650054E-1,-6.2698945E-2,2.8549376E-1,3.0337396E0,-9.373376E-3,1.1776181E-1,-7.816146E-1,2.8575713E-2,2.0163284E-1,-3.5653856E-1,8.4779483E-1,-7.27224E-2,2.8415173E-4,1.630302E-1,1.1449372E-2,-0E0,-3.3677254E-2,-5.4774355E-2,-1.8760294E-3,1.829408E-2,5.610795E-3,-2.2326011E-2,7.195976E-2,2.1436017E-2,-1.1438428E-2,3.884044E-2,-0E0,-1.0517787E-3],"categories":[],"categories_nodes":[],"categories_segments":[],"categories_sizes":[],"default_left":[0,0,0,0,0,0,0,0,0,0,0,0,0,0,0,0,0,0,0,0,0,0,0,0,0,0,0,0,0,0,0,0,0,0,0,0,0,0,0,0,0,0,0,0,0,0,0],"id":13,"left_children":[1,3,5,7,9,11,13,15,17,-1,19,21,-1,-1,23,25,-1,27,-1,-1,-1,29,31,-1,33,35,-1,37,39,41,43,-1,-1,-1,45,-1,-1,-1,-1,-1,-1,-1,-1,-1,-1,-1,-1],"loss_changes":[1.7955367E2,4.848687E1,1.1253019E2,2.8039715E1,4.3832474E0,2.7313165E2,3.292637E1,3.7533646E0,1.5869597E1,0E0,3.5853577E0,9.447338E1,0E0,0E0,2.8666312E-1,3.4661674E0,0E0,4.1830506E0,0E0,0E0,0E0,7.4620125E1,7.932045E0,0E0,1.512335E-1,1.8181572E0,0E0,2.5083559E0,8.674462E-1,3.451168E1,2.997323E1,0E0,0E0,0E0,1.3274858E-3,0E0,0E0,0E0,0E0,0E0,0E0,0E0,0E0,0E0,0E0,0E0,0E0],"parents":[2147483647,0,0,1,1,2,2,3,3,4,4,5,5,6,6,7,7,8,8,10,10,11,11,14,14,15,15,17,17,21,21,22,22,24,24,25,25,27,27,28,28,29,29,30,30,34,34],"right_children":[2,4,6,8,10,12,14,16,18,-1,20,22,-1,-1,24,26,-1,28,-1,-1,-1,30,32,-1,34,36,-1,38,40,42,44,-1,-1,-1,46,-1,-1,-1,-1,-1,-1,-1,-1,-1,-1,-1,-1],"split_conditions":[3.959E2,1.1498E3,9.07E2,6.504065E1,6.29E2,8.4E1,8.474E2,3.518E2,3.889E2,2.2579476E-3,7.37E2,6.6E2,2.3680787E-1,-1.0676356E-1,9.289E2,3.503E2,-7.670601E-2,1.0788E3,-8.050472E-2,-1.0650054E-1,-6.2698945E-2,1.5768E2,3.2E1,-9.373376E-3,9.473E2,1.751E2,2.8575713E-2,9.638E2,3.36E2,1.053E3,1.127E3,2.8415173E-4,1.630302E-1,1.1449372E-2,4.5E1,-3.3677254E-2,-5.4774355E-2,-1.8760294E-3,1.829408E-2,5.610795E-3,-2.2326011E-2,7.195976E-2,2.1436017E-2,-1.1438428E-2,3.884044E-2,-0E0,-1.0517787E-3],"split_indices":[0,1,2,6,2,6,1,0,0,0,2,0,0,0,1,0,0,1,0,0,0,3,6,0,1,3,0,1,0,1,1,0,0,0,6,0,0,0,0,0,0,0,0,0,0,0,0],"split_type":[0,0,0,0,0,0,0,0,0,0,0,0,0,0,0,0,0,0,0,0,0,0,0,0,0,0,0,0,0,0,0,0,0,0,0,0,0,0,0,0,0,0,0,0,0,0,0],"sum_hessian":[6.44E2,2.19E2,4.25E2,1.8E2,3.9E1,3.94E2,3.1E1,9.9E1,8.1E1,1E0,3.8E1,3.8E2,1.4E1,2E1,1.1E1,9.1E1,8E0,7.6E1,5E0,2E1,1.8E1,3.68E2,1.2E1,4E0,7E0,9E1,1E0,6E1,1.6E1,1.43E2,2.25E2,1E0,1.1E1,4E0,3E0,7E1,2E1,2.4E1,3.6E1,2E0,1.4E1,5.8E1,8.5E1,1.91E2,3.4E1,1E0,2E0],"tree_param":{"num_deleted":"0","num_feature":"7","num_nodes":"47","size_leaf_vector":"1"}},{"base_weights":[3.1227063E-2,-3.3725893E-1,6.07782E-1,-7.265452E-1,1.0512196E-1,1.1971253E0,-2.2729583E-2,-1.3111157E0,-5.608954E-1,2.6017094E-1,-1.0964568E0,1.0197836E0,2.0623659E-1,-8.642838E-2,2.8624785E-1,-1.1521852E-1,-9.131694E-1,-4.9031225E-1,-7.386064E-2,4.8171598E-1,-6.2480235E-1,8.0139834E-1,-1.4739547E0,9.0012705E-1,2.7229452E-1,6.057522E-1,-9.9111485E-1,-2.1849701E-1,-5.3703304E-2,-5.8099884E-1,7.070206E-2,2.6918483E-1,2.38341E0,-3.0086297E-1,-9.9119276E-2,4.916449E-2,-0E0,-8.371279E-2,-2.7916048E-2,6.7319417E-1,2.8992455E0,1.3763623E0,2.1131651E-1,-8.930948E-2,-7.866612E-2,-0E0,-1.578082E-2,-7.528057E-2,-2.6932998E-2,3.1052787E-2,3.174756E-5,-1.6182641E-3,2.6472798E-2,1.8451194E-1,5.3393092E-2,-2.4695164E-2,-8.52734E-4,-2.3168352E-2,4.50691E-2,2.7704687E-4,1.5672666E-1,8.527506E-2,2.2934001E-2,4.077685E-2,-1.9492297E-2,-1.0314393E-2,1.1521056E-2],"categories":[],"categories_nodes":[],"categories_segments":[],"categories_sizes":[],"default_left":[0,0,0,0,0,0,0,0,0,0,0,0,0,0,0,0,0,0,0,0,0,0,0,0,0,0,0,0,0,0,0,0,0,0,0,0,0,0,0,0,0,0,0,0,0,0,0,0,0,0,0,0,0,0,0,0,0,0,0,0,0,0,0,0,0,0,0],"id":14,"left_children":[1,3,5,7,9,11,13,15,17,19,21,23,-1,-1,25,-1,27,29,-1,31,33,35,37,39,-1,41,43,45,-1,47,49,51,53,55,-1,-1,-1,-1,-1,57,59,61,63,-1,65,-1,-1,-1,-1,-1,-1,-1,-1,-1,-1,-1,-1,-1,-1,-1,-1,-1,-1,-1,-1,-1,-1],"loss_changes":[1.3668059E2,6.7770226E1,9.364808E1,1.8941292E1,3.431423E1,6.1744583E1,6.522948E1,1.4717255E1,9.357079E0,3.2412132E1,1.6428156E1,5.886618E1,0E0,0E0,4.2929554E1,0E0,3.1777458E0,8.080021E0,0E0,5.191298E1,1.3231162E1,3.3161926E-1,1.6967049E0,5.232374E1,0E0,2.4765162E1,1.4534794E1,1.161409E-1,0E0,3.8214226E0,6.6145563E-1,9.584436E0,1.698146E1,1.3723097E0,0E0,0E0,0E0,0E0,0E0,2.933686E1,7.210846E0,7.0257263E0,2.1150017E1,0E0,4.742019E-1,0E0,0E0,0E0,0E0,0E0,0E0,0E0,0E0,0E0,0E0,0E0,0E0,0E0,0E0,0E0,0E0,0E0,0E0,0E0,0E0,0E0,0E0],"parents":[2147483647,0,0,1,1,2,2,3,3,4,4,5,5,6,6,7,7,8,8,9,9,10,10,11,11,14,14,16,16,17,17,19,19,20,20,21,21,22,22,23,23,25,25,26,26,27,27,29,29,30,30,31,31,32,32,33,33,39,39,40,40,41,41,42,42,44,44],"right_children":[2,4,6,8,10,12,14,16,18,20,22,24,-1,-1,26,-1,28,30,-1,32,34,36,38,40,-1,42,44,46,-1,48,50,52,54,56,-1,-1,-1,-1,-1,58,60,62,64,-1,66,-1,-1,-1,-1,-1,-1,-1,-1,-1,-1,-1,-1,-1,-1,-1,-1,-1,-1,-1,-1,-1,-1],"split_conditions":[4.483E2,3.9E-1,1.848E0,3.359E2,1.134E3,8.4E1,6.63E2,7.37E2,4.15E2,9.08E2,5.17E2,1.06E3,2.0623659E-1,-8.642838E-2,1.17E1,-1.1521852E-1,1.1381E3,4.014E2,-7.386064E-2,8.4E1,4.014E2,1.1473E3,4.014E2,5.6E2,2.7229452E-1,5.201E2,8.08E2,2.68E2,-5.3703304E-2,1.0113E3,4.11E2,3.959E2,9.639E2,9.798E2,-9.9119276E-2,4.916449E-2,-0E0,-8.371279E-2,-2.7916048E-2,5.3E1,3.2E1,8.444E2,6.25E1,-8.930948E-2,1.95E1,-0E0,-1.578082E-2,-7.528057E-2,-2.6932998E-2,3.1052787E-2,3.174756E-5,-1.6182641E-3,2.6472798E-2,1.8451194E-1,5.3393092E-2,-2.4695164E-2,-8.52734E-4,-2.3168352E-2,4.50691E-2,2.7704687E-4,1.5672666E-1,8.527506E-2,2.2934001E-2,4.077685E-2,-1.9492297E-2,-1.0314393E-2,1.1521056E-2],"split_indices":[0,4,4,0,1,6,1,2,0,2,2,1,0,0,4,0,1,0,0,6,0,1,0,0,0,0,2,0,0,1,0,0,1,2,0,0,0,0,0,6,6,2,6,0,4,0,0,0,0,0,0,0,0,0,0,0,0,0,0,0,0,0,0,0,0,0,0],"split_type":[0,0,0,0,0,0,0,0,0,0,0,0,0,0,0,0,0,0,0,0,0,0,0,0,0,0,0,0,0,0,0,0,0,0,0,0,0,0,0,0,0,0,0,0,0,0,0,0,0,0,0,0,0,0,0,0,0,0,0,0,0,0,0,0,0,0,0],"sum_hessian":[6.41E2,3.91E2,2.5E2,2.08E2,1.83E2,1.29E2,1.21E2,4.4E1,1.64E2,1.63E2,2E1,1.23E2,6E0,1.8E1,1.03E2,1.1E1,3.3E1,1.54E2,1E1,1.31E2,3.2E1,3E0,1.7E1,1.21E2,2E0,8.3E1,2E1,7E0,2.6E1,1.33E2,2.1E1,1.19E2,1.2E1,2.7E1,5E0,2E0,1E0,1.3E1,4E0,1.1E2,1.1E1,2.7E1,5.6E1,1E1,1E1,3E0,4E0,4E0,1.29E2,1E0,2E1,5.5E1,6.4E1,5E0,7E0,1.5E1,1.2E1,1.8E1,9.2E1,1E0,1E1,1.9E1,8E0,2.8E1,2.8E1,8E0,2E0],"tree_param":{"num_deleted":"0","num_feature":"7","num_nodes":"67","size_leaf_vector":"1"}},{"base_weights":[-1.642889E-2,-5.96997E-1,7.511433E-1,-8.5973155E-1,-1.9150877E-1,1.2814753E0,2.2087832E-1,-1.258841E-1,-1.0113131E0,-4.810415E-1,8.229551E-1,1.7314749E0,6.40026E-2,5.6389824E-2,2.903317E-1,-1.1375375E0,3.375937E-1,-1.7009687E0,-8.147312E-1,-1.5105124E0,-2.0697333E-1,1.4821236E0,-8.113449E-1,2.2044656E0,2.5256076E-1,-9.287909E-1,8.0806726E-1,5.2189326E-1,-5.6022125E-1,-7.5324915E-2,-3.4056235E-2,7.170131E-2,1.8655942E-1,2.701208E-4,-1.7525526E0,-8.9833397E-1,-5.533735E-2,-1.7904779E0,-3.222025E-1,-8.692003E-1,2.4073377E-1,1.8649465E0,-2.855926E-1,-5.4828305E-2,1.1969302E-1,3.511722E0,1.612259E0,4.886115E-2,-3.2400638E-1,-7.6785244E-2,-1.8534477E-1,8.771321E-2,1.6647798E-1,2.3410352E-1,1.1336666E0,-3.7881994E-1,-8.272387E-2,3.822125E-2,-4.8035546E-3,-3.3308443E-2,-9.081233E-2,-3.6975812E-2,-5.4765474E-2,4.576791E-2,-2.400912E-2,-4.2416114E-2,-1.02246955E-1,-6.2674314E-2,1.9090548E-2,2.9236734E-2,-4.8727524E-2,2.2120541E-2,-1.3617972E-2,3.233051E-2,1.1039757E-1,3.5903364E-2,-3.955122E-2,1.6128687E-2,-0E0,1.986099E-1,4.997849E-2,3.206959E-2,1.1667653E-1,-5.9188593E-2,-3.8799238E-3,1.1978265E-3,-3.5596646E-2,2.9581372E-2,-1.8053407E-2,-9.307067E-3,2.2298004E-2,3.570794E-2,7.214462E-2,-3.8888194E-3,-3.5043884E-2],"categories":[],"categories_nodes":[],"categories_segments":[],"categories_sizes":[],"default_left":[0,0,0,0,0,0,0,0,0,0,0,0,0,0,0,0,0,0,0,0,0,0,0,0,0,0,0,0,0,0,0,0,0,0,0,0,0,0,0,0,0,0,0,0,0,0,0,0,0,0,0,0,0,0,0,0,0,0,0,0,0,0,0,0,0,0,0,0,0,0,0,0,0,0,0,0,0,0,0,0,0,0,0,0,0,0,0,0,0,0,0,0,0,0,0],"id":15,"left_children":[1,3,5,7,9,11,13,15,17,19,21,23,25,27,-1,29,31,33,35,37,39,41,43,45,47,49,51,53,55,-1,-1,-1,57,-1,59,61,63,65,67,69,71,73,75,-1,77,79,81,-1,83,-1,85,-1,87,89,91,93,-1,-1,-1,-1,-1,-1,-1,-1,-1,-1,-1,-1,-1,-1,-1,-1,-1,-1,-1,-1,-1,-1,-1,-1,-1,-1,-1,-1,-1,-1,-1,-1,-1,-1,-1,-1,-1,-1,-1],"loss_changes":[2.9095157E2,3.915129E1,7.8288055E1,2.4560013E1,4.3763935E1,7.605127E1,1.283822E2,1.9379166E1,2.3076202E1,3.1900957E1,3.6953957E1,7.00564E1,2.952371E1,4.0178684E1,0E0,5.067806E-1,3.8830626E0,4.0544662E0,8.996849E0,6.7737617E0,2.797077E1,1.7247746E1,3.0798302E0,5.2411804E1,1.1375818E1,6.869581E0,1.30943365E1,1.3409245E1,1.0673233E1,0E0,0E0,0E0,4.520329E0,0E0,7.440033E-1,2.7689285E0,6.907309E0,1.9523544E0,4.6739154E0,6.5073433E0,5.96634E0,6.07386E0,3.1263037E0,0E0,1.651284E-1,2.1144043E1,3.612506E1,0E0,2.7075257E0,0E0,1.2153885E0,0E0,3.6470742E0,5.1467276E0,1.5654945E0,4.8504214E0,0E0,0E0,0E0,0E0,0E0,0E0,0E0,0E0,0E0,0E0,0E0,0E0,0E0,0E0,0E0,0E0,0E0,0E0,0E0,0E0,0E0,0E0,0E0,0E0,0E0,0E0,0E0,0E0,0E0,0E0,0E0,0E0,0E0,0E0,0E0,0E0,0E0,0E0,0E0],"parents":[2147483647,0,0,1,1,2,2,3,3,4,4,5,5,6,6,7,7,8,8,9,9,10,10,11,11,12,12,13,13,15,15,16,16,17,17,18,18,19,19,20,20,21,21,22,22,23,23,24,24,25,25,26,26,27,27,28,28,32,32,34,34,35,35,36,36,37,37,38,38,39,39,40,40,41,41,42,42,44,44,45,45,46,46,48,48,50,50,52,52,53,53,54,54,55,55],"right_children":[2,4,6,8,10,12,14,16,18,20,22,24,26,28,-1,30,32,34,36,38,40,42,44,46,48,50,52,54,56,-1,-1,-1,58,-1,60,62,64,66,68,70,72,74,76,-1,78,80,82,-1,84,-1,86,-1,88,90,92,94,-1,-1,-1,-1,-1,-1,-1,-1,-1,-1,-1,-1,-1,-1,-1,-1,-1,-1,-1,-1,-1,-1,-1,-1,-1,-1,-1,-1,-1,-1,-1,-1,-1,-1,-1,-1,-1,-1,-1],"split_conditions":[1E0,1.38E0,1.065E3,6.516E2,6.6E-1,1.792E2,2.02E2,6.29E2,3.9E-1,8.474E2,6.28E0,1.81E0,1.11E0,1.74E2,2.903317E-1,1.116E3,6.49E2,5.46E2,8.913E2,2.062E2,7.502E2,9.135E2,9.429E2,9.78E2,1.625E2,2.299E2,7.6E2,1.01E0,8E-2,-7.5324915E-2,-3.4056235E-2,7.170131E-2,3E-1,2.701208E-4,1.52E2,7.28E2,9.068E2,5.4E2,5.76E2,6.29E2,9.07E2,7.6E2,1.44E2,-5.4828305E-2,9.289E2,8.913E2,1.01E0,4.886115E-2,8.13E2,-7.6785244E-2,9.429E2,8.771321E-2,9E2,2.52E0,7.351E2,7.5E2,-8.272387E-2,3.822125E-2,-4.8035546E-3,-3.3308443E-2,-9.081233E-2,-3.6975812E-2,-5.4765474E-2,4.576791E-2,-2.400912E-2,-4.2416114E-2,-1.02246955E-1,-6.2674314E-2,1.9090548E-2,2.9236734E-2,-4.8727524E-2,2.2120541E-2,-1.3617972E-2,3.233051E-2,1.1039757E-1,3.5903364E-2,-3.955122E-2,1.6128687E-2,-0E0,1.986099E-1,4.997849E-2,3.206959E-2,1.1667653E-1,-5.9188593E-2,-3.8799238E-3,1.1978265E-3,-3.5596646E-2,2.9581372E-2,-1.8053407E-2,-9.307067E-3,2.2298004E-2,3.570794E-2,7.214462E-2,-3.8888194E-3,-3.5043884E-2],"split_indices":[5,4,1,2,5,3,3,2,5,1,4,4,5,3,0,1,2,1,2,3,2,1,2,1,3,3,1,5,4,0,0,0,5,0,3,2,2,1,1,2,2,1,3,0,1,2,5,0,1,0,1,0,1,4,2,2,0,0,0,0,0,0,0,0,0,0,0,0,0,0,0,0,0,0,0,0,0,0,0,0,0,0,0,0,0,0,0,0,0,0,0,0,0,0,0],"split_type":[0,0,0,0,0,0,0,0,0,0,0,0,0,0,0,0,0,0,0,0,0,0,0,0,0,0,0,0,0,0,0,0,0,0,0,0,0,0,0,0,0,0,0,0,0,0,0,0,0,0,0,0,0,0,0,0,0,0,0,0,0,0,0,0,0,0,0,0,0,0,0,0,0,0,0,0,0,0,0,0,0,0,0,0,0,0,0,0,0,0,0,0,0,0,0],"sum_hessian":[6.51E2,3.71E2,2.8E2,2.24E2,1.47E2,1.39E2,1.41E2,3.9E1,1.85E2,1.15E2,3.2E1,1.01E2,3.8E1,1.38E2,3E0,1.2E1,2.7E1,3.9E1,1.46E2,2.3E1,9.2E1,2.3E1,9E0,7.6E1,2.5E1,1.6E1,2.2E1,7.9E1,5.9E1,5E0,7E0,2E0,2.5E1,1E0,3.8E1,1.31E2,1.5E1,1.8E1,5E0,3.7E1,5.5E1,1.9E1,4E0,7E0,2E0,2.2E1,5.4E1,1.1E1,1.4E1,8E0,8E0,8E0,1.4E1,5.5E1,2.4E1,5.2E1,7E0,8E0,1.7E1,3E0,3.5E1,7.6E1,5.5E1,4E0,1.1E1,5E0,1.3E1,2E0,3E0,2E0,3.5E1,4E1,1.5E1,5E0,1.4E1,1E0,3E0,1E0,1E0,1.8E1,4E0,2.4E1,3E1,2E0,1.2E1,6E0,2E0,8E0,6E0,1.8E1,3.7E1,1.2E1,1.2E1,2.8E1,2.4E1],"tree_param":{"num_deleted":"0","num_feature":"7","num_nodes":"95","size_leaf_vector":"1"}},{"base_weights":[-4.0243547E-2,-5.788855E-1,7.0444447E-1,-6.830781E-1,9.43528E-1,6.055698E-1,2.1308456E-1,-1.841191E-2,-8.121762E-1,3.3720436E0,-1.7409912E0,1.2124215E0,4.0833373E-2,-2.998032E-1,1.3322465E0,-8.3926463E-1,9.840309E-2,9.7220235E-2,2.1375525E-1,-6.393356E-3,-1.0104147E-1,7.375491E-1,1.7690644E0,2.3310402E-1,-5.9941255E-2,-5.796159E-1,5.6313112E-2,1.2170184E-1,7.150444E-1,-2.8322944E-1,-9.4212216E-1,4.884166E-1,2.5697742E0,1.5110348E-1,1.1534855E0,-4.1979575E-1,2.5659525E-1,2.5697773E-2,-3.2513253E-2,-2.5560467E-3,4.2688455E-2,4.6068948E-2,1.0168257E-2,-4.8015248E-2,9.98985E-3,-5.774715E-2,-2.9160911E-2,4.737209E-3,3.8635295E-2,-3.923988E-2,1.601985E-1,6.446771E-2,5.9335646E-3,-3.2283925E-2,3.499868E-2,2.1060618E-2,-7.871975E-2],"categories":[],"categories_nodes":[],"categories_segments":[],"categories_sizes":[],"default_left":[0,0,0,0,0,0,0,0,0,0,0,0,0,0,0,0,0,0,0,0,0,0,0,0,0,0,0,0,0,0,0,0,0,0,0,0,0,0,0,0,0,0,0,0,0,0,0,0,0,0,0,0,0,0,0,0,0],"id":16,"left_children":[1,3,5,7,9,11,-1,13,15,17,19,21,23,25,27,29,-1,-1,-1,-1,-1,31,33,-1,35,37,39,-1,41,43,45,47,49,-1,51,53,55,-1,-1,-1,-1,-1,-1,-1,-1,-1,-1,-1,-1,-1,-1,-1,-1,-1,-1,-1,-1],"loss_changes":[2.5628482E2,5.941597E1,9.0220474E1,2.9596771E1,1.6282553E2,8.936487E1,0E0,2.213336E1,2.3228897E1,6.5818024E0,4.513958E0,3.1249374E1,6.546159E1,5.072278E0,4.115103E0,1.589418E1,0E0,0E0,0E0,0E0,0E0,2.9780102E1,3.9226852E1,0E0,1.5534133E1,2.5383759E0,2.1692662E0,0E0,3.1981707E-1,1.5791153E1,1.736586E1,6.7173157E0,2.0259857E1,0E0,5.0485306E0,1.6623608E1,2.2018887E1,0E0,0E0,0E0,0E0,0E0,0E0,0E0,0E0,0E0,0E0,0E0,0E0,0E0,0E0,0E0,0E0,0E0,0E0,0E0,0E0],"parents":[2147483647,0,0,1,1,2,2,3,3,4,4,5,5,7,7,8,8,9,9,10,10,11,11,12,12,13,13,14,14,15,15,21,21,22,22,24,24,25,25,26,26,28,28,29,29,30,30,31,31,32,32,34,34,35,35,36,36],"right_children":[2,4,6,8,10,12,-1,14,16,18,20,22,24,26,28,30,-1,-1,-1,-1,-1,32,34,-1,36,38,40,-1,42,44,46,48,50,-1,52,54,56,-1,-1,-1,-1,-1,-1,-1,-1,-1,-1,-1,-1,-1,-1,-1,-1,-1,-1,-1,-1],"split_conditions":[1E0,8.5E1,8.4E1,1.573E2,8.44E2,1.718E2,2.1308456E-1,1.56E2,6.6E2,3.4E-1,3.251E2,1.11E0,5.561E2,7.49E2,8.384E2,6.516E2,9.840309E-2,9.7220235E-2,2.1375525E-1,-6.393356E-3,-1.0104147E-1,1.642E2,1.376E2,2.3310402E-1,3.95E2,6.29E2,4.52E2,1.2170184E-1,8.444E2,6.426E2,8.23E2,6.6E1,3.838E2,1.5110348E-1,4.52E2,8.6E2,9.01E2,2.5697773E-2,-3.2513253E-2,-2.5560467E-3,4.2688455E-2,4.6068948E-2,1.0168257E-2,-4.8015248E-2,9.98985E-3,-5.774715E-2,-2.9160911E-2,4.737209E-3,3.8635295E-2,-3.923988E-2,1.601985E-1,6.446771E-2,5.9335646E-3,-3.2283925E-2,3.499868E-2,2.1060618E-2,-7.871975E-2],"split_indices":[5,6,6,3,2,3,0,3,0,5,0,5,2,2,2,2,0,0,0,0,0,3,3,0,0,2,0,0,2,2,2,6,0,0,0,2,2,0,0,0,0,0,0,0,0,0,0,0,0,0,0,0,0,0,0,0,0],"split_type":[0,0,0,0,0,0,0,0,0,0,0,0,0,0,0,0,0,0,0,0,0,0,0,0,0,0,0,0,0,0,0,0,0,0,0,0,0,0,0,0,0,0,0,0,0,0,0,0,0,0,0,0,0,0,0,0,0],"sum_hessian":[6.37E2,3.7E2,2.67E2,3.47E2,2.3E1,2.61E2,6E0,5.7E1,2.9E2,1.2E1,1.1E1,1.25E2,1.36E2,4.8E1,9E0,2.88E2,2E0,6E0,6E0,2E0,9E0,6.9E1,5.6E1,2E0,1.34E2,2.7E1,2.1E1,2E0,7E0,4.6E1,2.42E2,6.2E1,7E0,1.7E1,3.9E1,6.3E1,7.1E1,1E0,2.6E1,1.9E1,2E0,4E0,3E0,1.9E1,2.7E1,1.5E2,9.2E1,2.7E1,3.5E1,1E0,6E0,3.4E1,5E0,5.3E1,1E1,6.6E1,5E0],"tree_param":{"num_deleted":"0","num_feature":"7","num_nodes":"57","size_leaf_vector":"1"}},{"base_weights":[-1.8567298E-2,-3.657503E-1,5.397218E-1,-1.1454698E-1,-7.527802E-1,7.5939655E-1,-9.5057416E-1,-4.0630582E-1,3.109033E-1,-1.878564E0,-5.8074766E-1,9.350426E-1,-1.4758693E0,1.3456604E-1,-1.5396746E0,-4.8711535E-1,1.4969679E0,4.1780663E-1,-8.612203E-2,-1.005133E-1,-1.8108165E-2,2.2855155E-1,-7.5731164E-1,8.028617E-1,1.9930254E-1,-3.608234E-2,-9.744853E-2,-1.2561293E-2,2.66847E-1,-5.360878E-1,-8.6331554E-2,-7.1763866E-2,-3.67992E-1,8.540517E-2,3.5322593E-3,6.166826E-2,1.2158571E0,2.8026316E-1,-7.204401E-3,-6.254102E-1,-8.951825E-2,3.2162623E0,7.204105E-1,1.9531174E-2,-0E0,-3.433866E-2,-5.3353263E-3,-2.8051784E-2,-3.8358816E-3,1.5156038E-2,-1.720484E-2,4.285773E-2,1.1990123E-1,2.7260562E-2,7.985515E-3,-3.4960385E-2,1.0693818E-3,2.733534E-1,-3.784495E-2,3.2100637E-2,1.1882045E-1],"categories":[],"categories_nodes":[],"categories_segments":[],"categories_sizes":[],"default_left":[0,0,0,0,0,0,0,0,0,0,0,0,0,0,0,0,0,0,0,0,0,0,0,0,0,0,0,0,0,0,0,0,0,0,0,0,0,0,0,0,0,0,0,0,0,0,0,0,0,0,0,0,0,0,0,0,0,0,0,0,0],"id":17,"left_children":[1,3,5,7,9,11,13,15,17,19,21,23,25,27,29,31,33,35,-1,-1,-1,37,39,41,-1,-1,-1,-1,43,45,-1,-1,47,-1,-1,49,51,53,-1,55,-1,57,59,-1,-1,-1,-1,-1,-1,-1,-1,-1,-1,-1,-1,-1,-1,-1,-1,-1,-1],"loss_changes":[1.24970764E2,3.8348408E1,8.152748E1,3.0318262E1,2.8383987E1,8.602273E1,2.1084927E1,2.2727627E1,2.1848007E1,2.5544815E0,1.9908066E1,7.6423416E1,3.5015259E0,6.841203E-1,2.3357277E0,1.4743599E1,1.1525898E0,2.6542316E1,0E0,0E0,0E0,5.6298006E-1,1.3553078E1,3.5105568E1,0E0,0E0,0E0,0E0,3.560335E-1,1.2180209E-2,0E0,0E0,6.8504467E0,0E0,0E0,6.6562E0,9.265324E0,4.3607366E-1,0E0,5.0869675E0,0E0,5.920795E1,2.2106033E1,0E0,0E0,0E0,0E0,0E0,0E0,0E0,0E0,0E0,0E0,0E0,0E0,0E0,0E0,0E0,0E0,0E0,0E0],"parents":[2147483647,0,0,1,1,2,2,3,3,4,4,5,5,6,6,7,7,8,8,9,9,10,10,11,11,12,12,13,13,14,14,15,15,16,16,17,17,21,21,22,22,23,23,28,28,29,29,32,32,35,35,36,36,37,37,39,39,41,41,42,42],"right_children":[2,4,6,8,10,12,14,16,18,20,22,24,26,28,30,32,34,36,-1,-1,-1,38,40,42,-1,-1,-1,-1,44,46,-1,-1,48,-1,-1,50,52,54,-1,56,-1,58,60,-1,-1,-1,-1,-1,-1,-1,-1,-1,-1,-1,-1,-1,-1,-1,-1,-1,-1],"split_conditions":[4.483E2,1.8E2,9E2,3.959E2,1.855E2,1.025E1,4.52E2,8.5E1,9E2,7.59E2,1.862E2,8.4E1,4.992E2,1.3E0,2.7E0,7.143E2,3.256E2,7E1,-8.612203E-2,-1.005133E-1,-1.8108165E-2,2E-2,4.158E2,5.9E2,1.9930254E-1,-3.608234E-2,-9.744853E-2,-1.2561293E-2,9.45E2,6.25E1,-8.6331554E-2,-7.1763866E-2,6.504065E1,8.540517E-2,3.5322593E-3,1.42E2,8.0645164E1,6.497E2,-7.204401E-3,8.62E2,-8.951825E-2,5.12E2,5.65E2,1.9531174E-2,-0E0,-3.433866E-2,-5.3353263E-3,-2.8051784E-2,-3.8358816E-3,1.5156038E-2,-1.720484E-2,4.285773E-2,1.1990123E-1,2.7260562E-2,7.985515E-3,-3.4960385E-2,1.0693818E-3,2.733534E-1,-3.784495E-2,3.2100637E-2,1.1882045E-1],"split_indices":[0,3,2,0,3,4,0,6,2,2,3,6,0,4,4,2,0,6,0,0,0,4,0,2,0,0,0,0,2,6,0,0,6,0,0,3,6,2,0,2,0,0,0,0,0,0,0,0,0,0,0,0,0,0,0,0,0,0,0,0,0],"split_type":[0,0,0,0,0,0,0,0,0,0,0,0,0,0,0,0,0,0,0,0,0,0,0,0,0,0,0,0,0,0,0,0,0,0,0,0,0,0,0,0,0,0,0,0,0,0,0,0,0,0,0,0,0,0,0,0,0,0,0,0,0],"sum_hessian":[6.43E2,3.97E2,2.46E2,2.42E2,1.55E2,2.15E2,3.1E1,1.44E2,9.8E1,1.9E1,1.36E2,2E2,1.5E1,1.1E1,2E1,1.39E2,5E0,9.4E1,4E0,1.7E1,2E0,2.4E1,1.12E2,1.93E2,7E0,7E0,8E0,2E0,9E0,4E0,1.6E1,1.4E1,1.25E2,4E0,1E0,6.6E1,2.8E1,2.2E1,2E0,1.01E2,1.1E1,5E0,1.88E2,6E0,3E0,2E0,2E0,7.4E1,5.1E1,4.2E1,2.4E1,2.3E1,5E0,5E0,1.7E1,9.1E1,1E1,3E0,2E0,1.81E2,7E0],"tree_param":{"num_deleted":"0","num_feature":"7","num_nodes":"61","size_leaf_vector":"1"}},{"base_weights":[2.8031643E-2,-7.232425E-1,5.592716E-1,-8.6728317E-1,-2.2229238E-1,3.9862862E-1,3.8225636E0,-9.05427E-1,1.2675526E0,-1.4724894E0,3.5716277E-2,-8.7013364E-2,9.331007E-1,2.0860301E-1,-4.5471843E-2,-1.0035273E0,-1.6481589E-1,8.039567E-2,-0E0,-9.6323065E-2,1.4012809E-2,-4.7064692E-1,4.813495E-1,-2.424959E-1,7.031788E-1,1.1094335E0,-7.741155E-1,-1.593846E0,-8.9879894E-1,-6.202038E-2,3.6546972E-1,-7.730272E-2,-6.0265285E-1,6.3147163E-1,-2.6989093E-2,5.3587586E-1,-4.5249987E-1,-4.685674E-1,9.486343E-1,8.2715297E-1,1.6961728E0,-9.0008184E-2,-7.474926E-2,-3.2845568E-2,-8.856793E-2,-5.0880384E-2,7.1670875E-2,3.571265E-2,-0E0,3.1880103E-3,-1.1734626E-2,-4.7656335E-2,-9.848057E-3,1.8016353E-2,4.9963515E-2,-1.354647E-2,5.1928785E-2,-2.8786838E-2,-1.15454765E-2,-0E0,-2.5772635E-2,-3.2745034E-2,5.2351784E-2,1.2133372E-1,3.296433E-2,5.482859E-2,1.2778628E-1,-1.560974E-2,2.1624608E-2],"categories":[],"categories_nodes":[],"categories_segments":[],"categories_sizes":[],"default_left":[0,0,0,0,0,0,0,0,0,0,0,0,0,0,0,0,0,0,0,0,0,0,0,0,0,0,0,0,0,0,0,0,0,0,0,0,0,0,0,0,0,0,0,0,0,0,0,0,0,0,0,0,0,0,0,0,0,0,0,0,0,0,0,0,0,0,0,0,0],"id":18,"left_children":[1,3,5,7,9,11,13,15,17,19,21,23,25,-1,-1,27,29,-1,-1,-1,-1,31,33,35,37,39,41,43,45,-1,47,49,51,53,-1,55,57,59,61,63,65,67,-1,-1,-1,-1,-1,-1,-1,-1,-1,-1,-1,-1,-1,-1,-1,-1,-1,-1,-1,-1,-1,-1,-1,-1,-1,-1,-1],"loss_changes":[2.641649E2,1.9251404E1,2.006091E2,1.8302368E1,2.0805006E1,9.663255E1,3.4541718E1,1.4668823E1,1.3293977E0,9.786434E0,1.2189326E1,2.3990225E1,5.424318E1,0E0,0E0,9.195099E0,1.5545453E1,0E0,0E0,0E0,0E0,1.0475206E0,4.813902E0,2.70251E1,9.7920885E0,2.4505661E1,7.773529E0,2.4321594E0,4.539087E1,0E0,2.1871896E0,2.4385865E-1,2.0265627E0,1.8249493E0,0E0,1.47070055E1,3.1751156E0,1.1125088E-2,5.063677E0,2.727848E1,2.2386597E1,1.2598583E0,0E0,0E0,0E0,0E0,0E0,0E0,0E0,0E0,0E0,0E0,0E0,0E0,0E0,0E0,0E0,0E0,0E0,0E0,0E0,0E0,0E0,0E0,0E0,0E0,0E0,0E0,0E0],"parents":[2147483647,0,0,1,1,2,2,3,3,4,4,5,5,6,6,7,7,8,8,9,9,10,10,11,11,12,12,15,15,16,16,21,21,22,22,23,23,24,24,25,25,26,26,27,27,28,28,30,30,31,31,32,32,33,33,35,35,36,36,37,37,38,38,39,39,40,40,41,41],"right_children":[2,4,6,8,10,12,14,16,18,20,22,24,26,-1,-1,28,30,-1,-1,-1,-1,32,34,36,38,40,42,44,46,-1,48,50,52,54,-1,56,58,60,62,64,66,68,-1,-1,-1,-1,-1,-1,-1,-1,-1,-1,-1,-1,-1,-1,-1,-1,-1,-1,-1,-1,-1,-1,-1,-1,-1,-1,-1],"split_conditions":[6.6E-1,4E0,8.4E1,6.6E2,8.474E2,4.15E2,4.875E2,1.1925E3,6.66E2,5.492E2,4.014E2,1.5E0,1.025E1,2.0860301E-1,-4.5471843E-2,6.75E2,3.7E2,8.039567E-2,-0E0,-9.6323065E-2,1.4012809E-2,9.629E2,5.201E2,9.78E2,1.038E3,1.11E0,4.992E2,5.4E2,8.5E1,-6.202038E-2,3E-1,6.4E1,1.1097E3,4.52E2,-2.6989093E-2,9.9E-1,3.95E2,6.375E1,3.081E2,1E-2,5.291E2,1.01E0,-7.474926E-2,-3.2845568E-2,-8.856793E-2,-5.0880384E-2,7.1670875E-2,3.571265E-2,-0E0,3.1880103E-3,-1.1734626E-2,-4.7656335E-2,-9.848057E-3,1.8016353E-2,4.9963515E-2,-1.354647E-2,5.1928785E-2,-2.8786838E-2,-1.15454765E-2,-0E0,-2.5772635E-2,-3.2745034E-2,5.2351784E-2,1.2133372E-1,3.296433E-2,5.482859E-2,1.2778628E-1,-1.560974E-2,2.1624608E-2],"split_indices":[5,4,6,0,1,0,0,1,0,0,0,5,4,0,0,1,0,0,0,0,0,1,0,1,1,5,0,1,6,0,5,6,1,0,0,5,0,6,0,4,0,5,0,0,0,0,0,0,0,0,0,0,0,0,0,0,0,0,0,0,0,0,0,0,0,0,0,0,0],"split_type":[0,0,0,0,0,0,0,0,0,0,0,0,0,0,0,0,0,0,0,0,0,0,0,0,0,0,0,0,0,0,0,0,0,0,0,0,0,0,0,0,0,0,0,0,0,0,0,0,0,0,0,0,0,0,0,0,0,0,0,0,0,0,0,0,0,0,0,0,0],"sum_hessian":[6.6E2,2.73E2,3.87E2,2.11E2,6.2E1,3.7E2,1.7E1,2.08E2,3E0,1E1,5.2E1,1.94E2,1.76E2,1.6E1,1E0,1.83E2,2.5E1,2E0,1E0,8E0,2E0,2.4E1,2.8E1,1.63E2,3.1E1,1.6E2,1.6E1,2.5E1,1.58E2,8E0,1.7E1,7E0,1.7E1,2.5E1,3E0,3.4E1,1.29E2,5E0,2.6E1,1.1E2,5E1,9E0,7E0,5E0,2E1,1.51E2,7E0,8E0,9E0,3E0,4E0,8E0,9E0,1.6E1,9E0,1.3E1,2.1E1,8.1E1,4.8E1,1E0,4E0,1E0,2.5E1,9E0,1.01E2,3.1E1,1.9E1,7E0,2E0],"tree_param":{"num_deleted":"0","num_feature":"7","num_nodes":"69","size_leaf_vector":"1"}},{"base_weights":[4.414102E-2,-5.170039E-1,7.454858E-1,-6.6171986E-1,-1.20245665E-2,1.3109039E0,2.2931121E-1,-8.006632E-1,-1.916176E-1,7.452478E-1,-4.100172E-1,1.7760837E0,2.910716E-1,1.506695E0,8.5588075E-2,-8.3705086E-1,1.2348547E0,-1.3596171E0,1.5018356E-2,1.2148525E0,-7.989522E-2,-5.1496035E-1,3.2530978E-1,1.2348139E0,2.5191107E0,-5.6725744E-2,1.6832529E0,4.1189036E-1,3.5539265E0,-1.21545926E-1,9.4508016E-1,-1.5207201E0,-7.514542E-1,7.821581E-2,-0E0,-8.880572E-2,5.2123815E-3,-2.5410223E-1,3.4685373E-1,-6.8982475E-2,1.5721239E0,-7.2024214E-1,-3.0202028E-1,2.8283918E-2,3.0595815E-2,8.4828097E-1,2.4250169E0,3.3500595E0,1.4960535E0,-1.204425E0,2.5149217E-1,-2.2287052E-2,1.0212975E-1,9.925488E-2,3.029387E-2,2.3614798E-1,5.501256E-2,-4.7668004E-1,2.304015E-1,-4.756855E-2,1.1468511E0,-2.4278043E-2,-8.535566E-2,1.4435865E-2,-4.064266E-2,-1.5903538E-3,-2.2088299E-2,2.8202241E-2,-3.0907897E-2,1.584727E-2,-3.302794E-2,1.9925525E-2,1.0992613E-1,-0E0,-3.8169827E-2,-1.7290933E-2,2.4519952E-3,-0E0,4.2674574E-3,-0E0,6.261581E-2,7.050108E-2,1.4228182E-1,1.9461595E-1,4.424087E-2,1.8051675E-2,9.845301E-2,-7.8139015E-2,-3.0842787E-2,-4.6791643E-2,3.427258E-2,-0E0,7.998221E-3,-2.0209657E-2,-6.214806E-2,8.922627E-3,3.3229526E-2,1.3171384E-2,6.441461E-2],"categories":[],"categories_nodes":[],"categories_segments":[],"categories_sizes":[],"default_left":[0,0,0,0,0,0,0,0,0,0,0,0,0,0,0,0,0,0,0,0,0,0,0,0,0,0,0,0,0,0,0,0,0,0,0,0,0,0,0,0,0,0,0,0,0,0,0,0,0,0,0,0,0,0,0,0,0,0,0,0,0,0,0,0,0,0,0,0,0,0,0,0,0,0,0,0,0,0,0,0,0,0,0,0,0,0,0,0,0,0,0,0,0,0,0,0,0,0,0],"id":19,"left_children":[1,3,5,7,9,11,13,15,17,19,21,23,25,27,29,31,33,35,37,39,-1,41,43,45,47,49,51,53,55,57,59,61,63,-1,-1,-1,-1,65,67,69,71,73,75,77,-1,79,81,83,85,87,89,-1,-1,91,-1,-1,-1,93,95,-1,97,-1,-1,-1,-1,-1,-1,-1,-1,-1,-1,-1,-1,-1,-1,-1,-1,-1,-1,-1,-1,-1,-1,-1,-1,-1,-1,-1,-1,-1,-1,-1,-1,-1,-1,-1,-1,-1,-1],"loss_changes":[2.5311694E2,2.5878967E1,8.27077E1,1.7641869E1,2.4617489E1,6.338199E1,2.711539E1,1.669072E1,1.6111593E1,3.263625E1,4.391464E0,3.316577E1,2.1888107E1,3.0966206E1,2.4752047E1,1.0464767E1,1.2417903E0,6.7836704E0,5.1169705E0,1.1567654E1,0E0,1.5740032E0,3.865394E-1,2.272387E1,2.583841E1,1.3323477E1,8.274853E0,3.954438E-1,7.398739E0,1.4057438E1,1.1481237E1,2.7581177E0,1.2462502E1,0E0,0E0,0E0,0E0,1.1370955E0,5.7818255E0,1.6822796E0,1.2312603E1,8.8981247E-1,5.057647E-1,1.785353E-2,0E0,1.5387335E1,2.6094055E-1,2.1858887E1,8.790642E0,6.656742E-2,1.5508632E1,0E0,0E0,6.883387E-2,0E0,0E0,0E0,2.1139965E0,8.9160705E-1,0E0,2.318924E0,0E0,0E0,0E0,0E0,0E0,0E0,0E0,0E0,0E0,0E0,0E0,0E0,0E0,0E0,0E0,0E0,0E0,0E0,0E0,0E0,0E0,0E0,0E0,0E0,0E0,0E0,0E0,0E0,0E0,0E0,0E0,0E0,0E0,0E0,0E0,0E0,0E0,0E0],"parents":[2147483647,0,0,1,1,2,2,3,3,4,4,5,5,6,6,7,7,8,8,9,9,10,10,11,11,12,12,13,13,14,14,15,15,16,16,17,17,18,18,19,19,21,21,22,22,23,23,24,24,25,25,26,26,27,27,28,28,29,29,30,30,31,31,32,32,37,37,38,38,39,39,40,40,41,41,42,42,43,43,45,45,46,46,47,47,48,48,49,49,50,50,53,53,57,57,58,58,60,60],"right_children":[2,4,6,8,10,12,14,16,18,20,22,24,26,28,30,32,34,36,38,40,-1,42,44,46,48,50,52,54,56,58,60,62,64,-1,-1,-1,-1,66,68,70,72,74,76,78,-1,80,82,84,86,88,90,-1,-1,92,-1,-1,-1,94,96,-1,98,-1,-1,-1,-1,-1,-1,-1,-1,-1,-1,-1,-1,-1,-1,-1,-1,-1,-1,-1,-1,-1,-1,-1,-1,-1,-1,-1,-1,-1,-1,-1,-1,-1,-1,-1,-1,-1,-1],"split_conditions":[1E0,6.6E-1,1.065E3,4E0,9.139E2,1.81E0,6.25E2,6.6E2,8.474E2,6.28E0,4.15E2,8.4E-1,1.0368E3,4.52E2,1.5E0,6.75E2,6.66E2,5.492E2,4.014E2,7.863E2,-7.989522E-2,1.0727E3,4.52E2,4.853E2,9.78E2,4.28E0,4.014E2,1.11E0,1.13E3,3.894E2,3.081E2,5.4E2,8.751E2,7.821581E-2,-0E0,-8.880572E-2,5.2123815E-3,4.9E-1,5.201E2,4.875E2,7.611E2,6.7E-1,1.1963E3,1.6E1,3.0595815E-2,9.94E2,1.01E0,8.921E2,1.01E0,6.26E2,8.068E2,-2.2287052E-2,1.0212975E-1,4.014E2,3.029387E-2,2.3614798E-1,5.501256E-2,3.504E2,1.1085E3,-4.756855E-2,7.262E2,-2.4278043E-2,-8.535566E-2,1.4435865E-2,-4.064266E-2,-1.5903538E-3,-2.2088299E-2,2.8202241E-2,-3.0907897E-2,1.584727E-2,-3.302794E-2,1.9925525E-2,1.0992613E-1,-0E0,-3.8169827E-2,-1.7290933E-2,2.4519952E-3,-0E0,4.2674574E-3,-0E0,6.261581E-2,7.050108E-2,1.4228182E-1,1.9461595E-1,4.424087E-2,1.8051675E-2,9.845301E-2,-7.8139015E-2,-3.0842787E-2,-4.6791643E-2,3.427258E-2,-0E0,7.998221E-3,-2.0209657E-2,-6.214806E-2,8.922627E-3,3.3229526E-2,1.3171384E-2,6.441461E-2],"split_indices":[5,5,1,4,1,4,2,0,1,4,0,4,1,0,5,1,0,0,0,2,0,1,0,0,1,4,0,5,1,0,0,1,1,0,0,0,0,5,0,0,1,5,1,4,0,1,5,2,5,1,2,0,0,0,0,0,0,0,1,0,2,0,0,0,0,0,0,0,0,0,0,0,0,0,0,0,0,0,0,0,0,0,0,0,0,0,0,0,0,0,0,0,0,0,0,0,0,0,0],"split_type":[0,0,0,0,0,0,0,0,0,0,0,0,0,0,0,0,0,0,0,0,0,0,0,0,0,0,0,0,0,0,0,0,0,0,0,0,0,0,0,0,0,0,0,0,0,0,0,0,0,0,0,0,0,0,0,0,0,0,0,0,0,0,0,0,0,0,0,0,0,0,0,0,0,0,0,0,0,0,0,0,0,0,0,0,0,0,0,0,0,0,0,0,0,0,0,0,0,0,0],"sum_hessian":[6.41E2,3.56E2,2.85E2,2.76E2,8E1,1.35E2,1.5E2,2.12E2,6.4E1,2.7E1,5.3E1,9.2E1,4.3E1,1.4E1,1.36E2,2.09E2,3E0,9E0,5.5E1,2.3E1,4E0,4.7E1,6E0,5.5E1,3.7E1,3.5E1,8E0,1E1,4E0,1.1E2,2.6E1,2.1E1,1.88E2,2E0,1E0,7E0,2E0,3E1,2.5E1,5E0,1.8E1,2.2E1,2.5E1,4E0,2E0,4.3E1,1.2E1,1.9E1,1.8E1,7E0,2.8E1,1E0,7E0,5E0,5E0,2E0,2E0,5.5E1,5.5E1,2E0,2.4E1,4E0,1.7E1,1E1,1.78E2,1.5E1,1.5E1,2.1E1,4E0,3E0,2E0,7E0,1.1E1,1E0,2.1E1,2.3E1,2E0,2E0,2E0,1.4E1,2.9E1,5E0,7E0,1.5E1,4E0,6E0,1.2E1,3E0,4E0,7E0,2.1E1,1E0,4E0,5.2E1,3E0,5.1E1,4E0,4E0,2E1],"tree_param":{"num_deleted":"0","num_feature":"7","num_nodes":"99","size_leaf_vector":"1"}},{"base_weights":[-5.144823E-3,-5.9835577E-1,4.5880157E-1,-6.4113027E-1,1.5045459E0,3.606195E-1,2.9362965E0,-7.8742296E-1,-1.7869449E-1,-0E0,8.780805E-2,1.1234636E-1,1.1872169E0,3.3155122E0,-4.2337675E-2,-1.4553001E0,-7.035015E-1,-1.2709068E0,1.6273204E-2,-2.0218731E-1,4.8197612E-1,-8.654038E-1,1.3622965E0,1.7863543E-1,-0E0,-2.9594904E-2,-7.9506345E-2,-7.906257E-1,1.1612581E0,-8.101274E-2,5.038638E-3,-2.9415354E-1,4.2918664E-1,4.9114475E-1,-3.6645108E-1,6.441861E-1,-7.7376544E-1,-4.695669E-2,-3.0755922E-3,1.0484205E0,1.1953875E-1,-4.489337E-2,-1.2530776E-2,-1.6119547E-2,8.370354E-2,-2.4178686E-2,2.026236E-3,-5.9988303E-3,3.211963E-2,-1.4576894E-2,4.364644E-2,-6.393503E-2,-1.6126042E-2,-4.8812415E-2,3.805157E-2,-5.467398E-3,-6.5198116E-2,4.6799826E-3,6.622305E-2],"categories":[],"categories_nodes":[],"categories_segments":[],"categories_sizes":[],"default_left":[0,0,0,0,0,0,0,0,0,0,0,0,0,0,0,0,0,0,0,0,0,0,0,0,0,0,0,0,0,0,0,0,0,0,0,0,0,0,0,0,0,0,0,0,0,0,0,0,0,0,0,0,0,0,0,0,0,0,0],"id":20,"left_children":[1,3,5,7,9,11,13,15,17,-1,-1,19,21,23,-1,25,27,29,31,33,35,37,39,-1,-1,-1,-1,41,43,-1,-1,45,47,49,51,53,55,-1,-1,57,-1,-1,-1,-1,-1,-1,-1,-1,-1,-1,-1,-1,-1,-1,-1,-1,-1,-1,-1],"loss_changes":[1.8361165E2,2.7061096E1,8.8925896E1,1.9052948E1,1.8385563E0,7.356186E1,2.3632317E1,1.0547272E1,1.5516246E1,0E0,0E0,3.261821E1,3.1155876E1,1.02668915E1,0E0,1.0816231E0,3.2650185E1,5.890251E0,7.985698E0,1.7339863E1,2.6736076E1,5.693531E-2,2.131842E1,0E0,0E0,0E0,0E0,1.0317825E1,7.792714E0,0E0,0E0,2.37133E0,3.3950891E0,9.094566E0,4.0364914E0,2.2452503E1,4.7175007E0,0E0,0E0,1.5528328E1,0E0,0E0,0E0,0E0,0E0,0E0,0E0,0E0,0E0,0E0,0E0,0E0,0E0,0E0,0E0,0E0,0E0,0E0,0E0],"parents":[2147483647,0,0,1,1,2,2,3,3,4,4,5,5,6,6,7,7,8,8,11,11,12,12,13,13,15,15,16,16,17,17,18,18,19,19,20,20,21,21,22,22,27,27,28,28,31,31,32,32,33,33,34,34,35,35,36,36,39,39],"right_children":[2,4,6,8,10,12,14,16,18,-1,-1,20,22,24,-1,26,28,30,32,34,36,38,40,-1,-1,-1,-1,42,44,-1,-1,46,48,50,52,54,56,-1,-1,58,-1,-1,-1,-1,-1,-1,-1,-1,-1,-1,-1,-1,-1,-1,-1,-1,-1,-1,-1],"split_conditions":[6.6E-1,6.6E2,8.4E1,4E0,1.9E-1,1.5E0,4.875E2,6.75E2,8.474E2,-0E0,8.780805E-2,4.137E2,3.087E2,9.651E2,-4.2337675E-2,5.4E2,8.5E1,5.492E2,4.761E0,9.78E2,1.025E1,3.081E2,5.291E2,1.7863543E-1,-0E0,-2.9594904E-2,-7.9506345E-2,1.1925E3,3.251E2,-8.101274E-2,5.038638E-3,1.1097E3,4.014E2,7.6E-1,9.98E2,6.63E2,4.992E2,-4.695669E-2,-3.0755922E-3,9.9E2,1.1953875E-1,-4.489337E-2,-1.2530776E-2,-1.6119547E-2,8.370354E-2,-2.4178686E-2,2.026236E-3,-5.9988303E-3,3.211963E-2,-1.4576894E-2,4.364644E-2,-6.393503E-2,-1.6126042E-2,-4.8812415E-2,3.805157E-2,-5.467398E-3,-6.5198116E-2,4.6799826E-3,6.622305E-2],"split_indices":[5,0,6,4,5,5,0,1,1,0,0,0,0,1,0,1,6,0,4,1,4,0,0,0,0,0,0,1,0,0,0,1,0,5,1,1,0,0,0,1,0,0,0,0,0,0,0,0,0,0,0,0,0,0,0,0,0,0,0],"split_type":[0,0,0,0,0,0,0,0,0,0,0,0,0,0,0,0,0,0,0,0,0,0,0,0,0,0,0,0,0,0,0,0,0,0,0,0,0,0,0,0,0,0,0,0,0,0,0,0,0,0,0,0,0,0,0,0,0,0,0],"sum_hessian":[6.65E2,2.92E2,3.73E2,2.87E2,5E0,3.6E2,1.3E1,2.17E2,7E1,1E0,4E0,2.78E2,8.2E1,1.2E1,1E0,2.2E1,1.95E2,1E1,6E1,1.5E2,1.28E2,6E0,7.6E1,1.1E1,1E0,4E0,1.8E1,1.87E2,8E0,8E0,2E0,3.4E1,2.6E1,2.8E1,1.22E2,1.14E2,1.4E1,5E0,1E0,6E1,1.6E1,1.55E2,3.2E1,2E0,6E0,2.2E1,1.2E1,7E0,1.9E1,9E0,1.9E1,4E0,1.18E2,7E0,1.07E2,7E0,7E0,1.4E1,4.6E1],"tree_param":{"num_deleted":"0","num_feature":"7","num_nodes":"59","size_leaf_vector":"1"}},{"base_weights":[-2.4387158E-2,-4.9749854E-1,6.021409E-1,-6.647207E-1,-1.4297514E-1,8.9442337E-1,-4.8216335E-2,-1.3975291E-1,-7.900054E-1,2.6229165E-2,-8.676504E-2,1.3850045E0,3.0446073E-1,2.2700799E-1,-2.0933028E-1,-8.006055E-1,5.149363E-1,-6.8043774E-1,-1.3154522E0,-1.9549543E-1,1.4930812E0,1.2443668E0,1.7475061E-1,7.666219E-2,6.0369235E-2,8.277791E-2,-2.992139E-1,-1.1515092E0,-3.3804733E-1,7.96078E-1,-8.9821145E-3,-1.3734845E0,-6.040505E-1,-8.239024E-2,-4.3426145E-2,-3.302668E-1,1.8760434E0,2.494176E0,-3.7425697E-1,8.2297325E-1,1.8962852E0,3.6017978E-1,-1.4078407E-1,-7.374795E-2,-2.0233181E-1,-6.665107E-2,-2.4909152E-2,1.6811623E-3,-3.521413E-2,7.118845E-2,2.5688792E-2,-7.1975E-2,-2.0812915E-3,-2.6667658E-2,-8.409449E-2,2.7359969E-3,-4.135972E-2,1.13983475E-1,-0E0,7.5413845E-2,1.55921E-1,-2.4746964E-2,-0E0,1.9278133E-2,6.636213E-2,1.27708E-1,6.830949E-2,-0E0,2.29894E-2,-5.025029E-2,-0E0,2.1601617E-2,-1.8752987E-2],"categories":[],"categories_nodes":[],"categories_segments":[],"categories_sizes":[],"default_left":[0,0,0,0,0,0,0,0,0,0,0,0,0,0,0,0,0,0,0,0,0,0,0,0,0,0,0,0,0,0,0,0,0,0,0,0,0,0,0,0,0,0,0,0,0,0,0,0,0,0,0,0,0,0,0,0,0,0,0,0,0,0,0,0,0,0,0,0,0,0,0,0,0],"id":21,"left_children":[1,3,5,7,9,11,13,15,17,19,-1,21,23,-1,25,27,29,31,33,35,37,39,-1,41,-1,-1,43,45,47,49,-1,51,53,-1,-1,55,57,59,61,63,65,67,69,-1,71,-1,-1,-1,-1,-1,-1,-1,-1,-1,-1,-1,-1,-1,-1,-1,-1,-1,-1,-1,-1,-1,-1,-1,-1,-1,-1,-1,-1],"loss_changes":[1.964966E2,2.2072075E1,5.4472084E1,1.6447899E1,3.369793E1,5.6088104E1,6.544451E1,2.256327E1,1.0365967E1,3.710773E1,0E0,2.5981018E1,1.8239536E1,0E0,1.4671656E1,3.3840141E0,5.4050903E0,7.735695E0,2.8642426E0,2.7515907E1,2.961018E1,2.564447E1,0E0,4.6786146E0,0E0,0E0,8.766706E0,4.4676208E-1,1.9944232E0,2.0540113E0,0E0,9.025154E-1,1.0478046E1,0E0,0E0,1.8068884E1,4.8672333E0,6.296158E-2,3.8441485E-1,1.3091076E1,8.93515E0,1.215457E0,5.2277737E0,0E0,8.801166E0,0E0,0E0,0E0,0E0,0E0,0E0,0E0,0E0,0E0,0E0,0E0,0E0,0E0,0E0,0E0,0E0,0E0,0E0,0E0,0E0,0E0,0E0,0E0,0E0,0E0,0E0,0E0,0E0],"parents":[2147483647,0,0,1,1,2,2,3,3,4,4,5,5,6,6,7,7,8,8,9,9,11,11,12,12,14,14,15,15,16,16,17,17,18,18,19,19,20,20,21,21,23,23,26,26,27,27,28,28,29,29,31,31,32,32,35,35,36,36,37,37,38,38,39,39,40,40,41,41,42,42,44,44],"right_children":[2,4,6,8,10,12,14,16,18,20,-1,22,24,-1,26,28,30,32,34,36,38,40,-1,42,-1,-1,44,46,48,50,-1,52,54,-1,-1,56,58,60,62,64,66,68,70,-1,72,-1,-1,-1,-1,-1,-1,-1,-1,-1,-1,-1,-1,-1,-1,-1,-1,-1,-1,-1,-1,-1,-1,-1,-1,-1,-1,-1,-1],"split_conditions":[1E0,8E1,1.792E2,6.513E2,9.5E1,1.065E3,5.9E2,6.426E2,1.1453E3,8.5E1,-8.676504E-2,8.4E1,1.5E0,2.2700799E-1,5.46E2,1.116E3,5.0955415E-1,4E1,7.37E2,8.9E-1,9.135E2,1.5E0,1.7475061E-1,6.62E2,6.0369235E-2,8.277791E-2,6.63E2,6.39E2,1.1611E3,1.1926E3,-8.9821145E-3,2.062E2,2.15E2,-8.239024E-2,-4.3426145E-2,1.636E2,9.185E2,3.4E-1,9.651E2,7.502E2,1.376E2,4.7E1,7.143E2,-7.374795E-2,9E2,-6.665107E-2,-2.4909152E-2,1.6811623E-3,-3.521413E-2,7.118845E-2,2.5688792E-2,-7.1975E-2,-2.0812915E-3,-2.6667658E-2,-8.409449E-2,2.7359969E-3,-4.135972E-2,1.13983475E-1,-0E0,7.5413845E-2,1.55921E-1,-2.4746964E-2,-0E0,1.9278133E-2,6.636213E-2,1.27708E-1,6.830949E-2,-0E0,2.29894E-2,-5.025029E-2,-0E0,2.1601617E-2,-1.8752987E-2],"split_indices":[5,6,3,2,6,1,2,2,1,6,0,6,5,0,1,1,5,6,2,5,1,5,0,2,0,0,1,2,1,1,0,3,3,0,0,3,1,5,1,2,3,6,2,0,1,0,0,0,0,0,0,0,0,0,0,0,0,0,0,0,0,0,0,0,0,0,0,0,0,0,0,0,0],"split_type":[0,0,0,0,0,0,0,0,0,0,0,0,0,0,0,0,0,0,0,0,0,0,0,0,0,0,0,0,0,0,0,0,0,0,0,0,0,0,0,0,0,0,0,0,0,0,0,0,0,0,0,0,0,0,0,0,0,0,0,0,0,0,0,0,0,0,0,0,0,0,0,0,0],"sum_hessian":[6.61E2,3.77E2,2.84E2,2.55E2,1.22E2,1.96E2,8.8E1,5E1,2.05E2,1.11E2,1.1E1,1.06E2,9E1,2E0,8.6E1,2.5E1,2.5E1,1.72E2,3.3E1,9.7E1,1.4E1,1.01E2,5E0,7.3E1,1.7E1,3E0,8.3E1,1.3E1,1.2E1,1.8E1,7E0,1.5E1,1.57E2,1.7E1,1.6E1,9.2E1,5E0,9E0,5E0,6.3E1,3.8E1,3.2E1,4.1E1,5E0,7.8E1,9E0,4E0,6E0,6E0,4E0,1.4E1,1.4E1,1E0,1.49E2,8E0,5.2E1,4E1,4E0,1E0,5E0,4E0,4E0,1E0,3.5E1,2.8E1,1.5E1,2.3E1,7E0,2.5E1,5E0,3.6E1,1.6E1,6.2E1],"tree_param":{"num_deleted":"0","num_feature":"7","num_nodes":"73","size_leaf_vector":"1"}},{"base_weights":[3.673538E-2,-5.855868E-1,4.917012E-1,-6.182355E-1,8.448016E-2,3.8369268E-1,2.7196624E0,-7.655789E-1,-1.2732434E-1,-6.1144073E-2,8.833098E-1,3.1913006E0,-4.450832E-1,-2.4515553E-1,-8.647075E-1,-5.4842937E-1,2.2868925E-1,-2.3987544E-1,2.9820132E-1,2.3576498E0,7.0093197E-1,1.2758162E0,1.8722923E-1,-0E0,-3.9110105E-2,-7.54402E-1,3.207761E-1,-9.253998E-1,1.6970584E-3,-6.5594964E-2,-2.4598643E-1,3.5505447E-1,-5.687789E-2,-5.052523E-1,5.4968838E-2,-5.3020805E-1,5.743753E-1,3.6255221E0,6.5360856E-1,4.1893494E-1,1.3351221E0,-1.9837812E-2,1.3115583E-1,-4.866358E-3,-4.2638525E-2,3.6535323E-2,-4.6228975E-4,-6.9465965E-2,-3.6343433E-2,6.277435E-2,-7.056704E-2,-3.0754328E-2,-3.0943581E-3,-1.5579495E-3,2.5684139E-2,-1.5761323E-2,-5.6783088E-2,-5.948762E-3,6.298601E-2,-0E0,-3.632583E-2,9.711551E-2,2.1667523E-2,2.3975733E-1,1.1981883E-1,-3.3939283E-2,5.8705956E-2,2.5009532E-2,-6.393593E-2,4.445729E-2,9.8139964E-2],"categories":[],"categories_nodes":[],"categories_segments":[],"categories_sizes":[],"default_left":[0,0,0,0,0,0,0,0,0,0,0,0,0,0,0,0,0,0,0,0,0,0,0,0,0,0,0,0,0,0,0,0,0,0,0,0,0,0,0,0,0,0,0,0,0,0,0,0,0,0,0,0,0,0,0,0,0,0,0,0,0,0,0,0,0,0,0,0,0,0,0],"id":22,"left_children":[1,3,5,7,-1,9,11,13,15,17,19,21,23,25,27,29,31,33,35,37,39,41,-1,-1,-1,43,45,47,49,-1,51,53,-1,55,57,59,61,63,65,67,69,-1,-1,-1,-1,-1,-1,-1,-1,-1,-1,-1,-1,-1,-1,-1,-1,-1,-1,-1,-1,-1,-1,-1,-1,-1,-1,-1,-1,-1,-1],"loss_changes":[1.8316518E2,2.1002197E1,8.802438E1,1.9164436E1,0E0,7.986546E1,2.7618721E1,1.0133949E1,9.816164E0,1.2257029E1,4.2871765E1,9.613571E0,6.293831E-1,1.0459035E1,9.375717E0,6.137107E0,6.2117577E0,1.01782E1,1.4731249E1,3.5235703E1,2.6098091E1,1.2975933E1,0E0,0E0,0E0,8.6004734E-1,2.5230565E0,1.3275894E1,2.2984999E1,0E0,1.3217168E0,2.1824875E0,0E0,7.3527393E0,1.3275221E1,1.8359871E0,7.705411E0,7.2795105E-1,7.1873026E0,1.516605E1,1.0275948E1,0E0,0E0,0E0,0E0,0E0,0E0,0E0,0E0,0E0,0E0,0E0,0E0,0E0,0E0,0E0,0E0,0E0,0E0,0E0,0E0,0E0,0E0,0E0,0E0,0E0,0E0,0E0,0E0,0E0,0E0],"parents":[2147483647,0,0,1,1,2,2,3,3,5,5,6,6,7,7,8,8,9,9,10,10,11,11,12,12,13,13,14,14,15,15,16,16,17,17,18,18,19,19,20,20,21,21,25,25,26,26,27,27,28,28,30,30,31,31,33,33,34,34,35,35,36,36,37,37,38,38,39,39,40,40],"right_children":[2,4,6,8,-1,10,12,14,16,18,20,22,24,26,28,30,32,34,36,38,40,42,-1,-1,-1,44,46,48,50,-1,52,54,-1,56,58,60,62,64,66,68,70,-1,-1,-1,-1,-1,-1,-1,-1,-1,-1,-1,-1,-1,-1,-1,-1,-1,-1,-1,-1,-1,-1,-1,-1,-1,-1,-1,-1,-1,-1],"split_conditions":[6.6E-1,6.6E2,8.4E1,4E0,8.448016E-2,4.15E2,8.921E2,6.513E2,8.23E2,7.971E2,6.484E2,3.251E2,3.352E2,6.426E2,8.4E1,6.25E1,8.0645164E1,3.894E2,8.9E-1,1E-2,1.11E0,7E-1,1.8722923E-1,-0E0,-3.9110105E-2,3.503E2,3E-1,3.821656E-1,8.91E2,-6.5594964E-2,7.39E2,4.014E2,-5.687789E-2,8E-2,7.391E2,5.7E1,3.251E2,5.12E2,4.7E1,1.01E0,5.492E2,-1.9837812E-2,1.3115583E-1,-4.866358E-3,-4.2638525E-2,3.6535323E-2,-4.6228975E-4,-6.9465965E-2,-3.6343433E-2,6.277435E-2,-7.056704E-2,-3.0754328E-2,-3.0943581E-3,-1.5579495E-3,2.5684139E-2,-1.5761323E-2,-5.6783088E-2,-5.948762E-3,6.298601E-2,-0E0,-3.632583E-2,9.711551E-2,2.1667523E-2,2.3975733E-1,1.1981883E-1,-3.3939283E-2,5.8705956E-2,2.5009532E-2,-6.393593E-2,4.445729E-2,9.8139964E-2],"split_indices":[5,0,6,4,0,0,2,2,2,2,2,0,0,2,6,6,6,0,5,4,5,5,0,0,0,0,5,5,2,0,2,0,0,4,2,6,0,0,6,5,0,0,0,0,0,0,0,0,0,0,0,0,0,0,0,0,0,0,0,0,0,0,0,0,0,0,0,0,0,0,0],"split_type":[0,0,0,0,0,0,0,0,0,0,0,0,0,0,0,0,0,0,0,0,0,0,0,0,0,0,0,0,0,0,0,0,0,0,0,0,0,0,0,0,0,0,0,0,0,0,0,0,0,0,0,0,0,0,0,0,0,0,0,0,0,0,0,0,0,0,0,0,0,0,0],"sum_hessian":[6.45E2,2.72E2,3.73E2,2.69E2,3E0,3.57E2,1.6E1,2.06E2,6.3E1,1.89E2,1.68E2,1.4E1,2E0,3.4E1,1.72E2,2.9E1,3.4E1,1.27E2,6.2E1,1.7E1,1.51E2,4E0,1E1,1E0,1E0,1.8E1,1.6E1,1.61E2,1.1E1,7E0,2.2E1,3.2E1,2E0,6.7E1,6E1,1.5E1,4.7E1,9E0,8E0,1.06E2,4.5E1,2E0,2E0,3E0,1.5E1,7E0,9E0,4.6E1,1.15E2,6E0,5E0,6E0,1.6E1,9E0,2.3E1,5.3E1,1.4E1,5.3E1,7E0,4E0,1.1E1,3E0,4.4E1,3E0,6E0,2E0,6E0,1.02E2,4E0,2.8E1,1.7E1],"tree_param":{"num_deleted":"0","num_feature":"7","num_nodes":"71","size_leaf_vector":"1"}},{"base_weights":[-2.5111377E-2,-5.552448E-1,4.0398362E-1,-6.744913E-1,-1.5690783E-1,2.8835693E-1,2.6324415E0,-1.0852274E-1,-7.8791666E-1,5.3195957E-2,-7.9516876E-1,4.9041606E-2,1.0626472E0,3.0612555E0,-4.3204647E-1,-7.85969E-1,5.275462E-1,-1.1568794E0,-6.0358125E-1,-2.3840618E-1,5.370663E-1,2.7778366E-1,-1.2522876E0,-1.5663789E-1,4.8929062E-1,1.15966275E-1,6.4864385E-1,1.2312888E0,1.7718184E-1,-0E0,-3.813235E-2,-1.0228163E0,-5.178362E-1,1.0908377E0,1.4655493E-1,-1.2870226E0,-3.2143238E-1,-6.8661416E-1,-1.2561935E-1,-2.9445523E-2,-7.666823E-2,1.52697135E-2,7.247669E-1,-0E0,3.6027217E-1,-1.3870435E0,1.6195461E-3,1.5092595E0,-2.6217064E-1,2.4096925E-2,7.284435E-1,1.0049001E0,7.7773064E-2,-1.9176565E-2,1.2678397E-1,-1.2455315E-2,-5.8271624E-2,-4.2190645E-2,-1.0593562E-2,5.8942515E-2,4.368751E-3,3.0517986E-2,-3.500148E-3,-5.9155035E-3,-6.507268E-2,7.2487414E-2,-8.969221E-2,-3.1531375E-2,-6.4205796E-2,1.621167E-2,-2.9566243E-2,1.0226732E-3,-1.147049E-2,3.7736723E-3,-0E0,4.1375455E-2,8.017447E-3,2.3320083E-2,-0E0,-2.9471299E-2,-7.770454E-2,-1.0007437E-3,1.4184953E-1,-1.8044012E-2,1.1844012E-2,6.489002E-3,-4.527694E-2,-2.953157E-3,4.8463825E-2,5.5539753E-2,1.3279139E-4,-3.0771429E-2,2.4930546E-2],"categories":[],"categories_nodes":[],"categories_segments":[],"categories_sizes":[],"default_left":[0,0,0,0,0,0,0,0,0,0,0,0,0,0,0,0,0,0,0,0,0,0,0,0,0,0,0,0,0,0,0,0,0,0,0,0,0,0,0,0,0,0,0,0,0,0,0,0,0,0,0,0,0,0,0,0,0,0,0,0,0,0,0,0,0,0,0,0,0,0,0,0,0,0,0,0,0,0,0,0,0,0,0,0,0,0,0,0,0,0,0,0,0],"id":23,"left_children":[1,3,5,7,9,11,13,15,17,19,21,23,25,27,29,31,33,35,37,39,41,43,45,47,49,-1,51,53,-1,-1,-1,55,57,59,61,63,65,67,69,-1,71,73,75,-1,77,79,-1,81,83,85,87,89,91,-1,-1,-1,-1,-1,-1,-1,-1,-1,-1,-1,-1,-1,-1,-1,-1,-1,-1,-1,-1,-1,-1,-1,-1,-1,-1,-1,-1,-1,-1,-1,-1,-1,-1,-1,-1,-1,-1,-1,-1],"loss_changes":[1.524522E2,1.3894829E1,9.370229E1,1.4410454E1,9.786065E0,6.5025116E1,2.576509E1,1.7728266E1,1.1764061E1,7.83691E0,9.468617E0,2.4715542E1,4.078753E1,8.32814E0,6.0326844E-1,2.7828407E-1,3.975707E0,5.844902E0,4.8293343E0,1.6826305E0,1.8236942E0,1.8599758E-1,2.7018585E0,3.2545803E1,9.435642E0,0E0,1.2613129E1,1.2149936E1,0E0,0E0,0E0,2.7841377E-1,7.013645E-1,2.236681E-1,1.6110022E0,3.139572E-1,2.8782923E1,2.2955093E0,4.6713314E0,0E0,4.382422E-1,2.6849052E-2,4.4079447E-1,0E0,2.2114176E-1,3.9800644E-2,0E0,2.323699E1,8.743375E0,2.9304438E0,1.1140797E1,3.8021812E0,7.856676E0,0E0,0E0,0E0,0E0,0E0,0E0,0E0,0E0,0E0,0E0,0E0,0E0,0E0,0E0,0E0,0E0,0E0,0E0,0E0,0E0,0E0,0E0,0E0,0E0,0E0,0E0,0E0,0E0,0E0,0E0,0E0,0E0,0E0,0E0,0E0,0E0,0E0,0E0,0E0,0E0],"parents":[2147483647,0,0,1,1,2,2,3,3,4,4,5,5,6,6,7,7,8,8,9,9,10,10,11,11,12,12,13,13,14,14,15,15,16,16,17,17,18,18,19,19,20,20,21,21,22,22,23,23,24,24,26,26,27,27,31,31,32,32,33,33,34,34,35,35,36,36,37,37,38,38,40,40,41,41,42,42,44,44,45,45,47,47,48,48,49,49,50,50,51,51,52,52],"right_children":[2,4,6,8,10,12,14,16,18,20,22,24,26,28,30,32,34,36,38,40,42,44,46,48,50,-1,52,54,-1,-1,-1,56,58,60,62,64,66,68,70,-1,72,74,76,-1,78,80,-1,82,84,86,88,90,92,-1,-1,-1,-1,-1,-1,-1,-1,-1,-1,-1,-1,-1,-1,-1,-1,-1,-1,-1,-1,-1,-1,-1,-1,-1,-1,-1,-1,-1,-1,-1,-1,-1,-1,-1,-1,-1,-1,-1,-1],"split_conditions":[6.6E-1,4E0,8.4E1,6.513E2,7.5E0,1.5E0,8.921E2,6.426E2,3.9E-1,4.761E0,1.576E2,7E1,1.376E2,9.1E-1,8.93E2,5.3E1,1.86E2,8.0645164E1,8.674E2,7.44E2,3.3E-1,2E-1,9.2E2,6.484E2,7.9E-1,1.15966275E-1,7.1E-1,7E-1,1.7718184E-1,-0E0,-3.813235E-2,4.7E1,2.5E-1,6.51E2,2.6E-1,1.33E2,8.424E2,5.5E-1,1.3615E0,-2.9445523E-2,7.59E2,8.52E2,9E2,-0E0,9.45E2,7.536E2,1.6195461E-3,1.581E2,8.23E2,2.33E2,7.6E-1,2.64E2,1.81E0,-1.9176565E-2,1.2678397E-1,-1.2455315E-2,-5.8271624E-2,-4.2190645E-2,-1.0593562E-2,5.8942515E-2,4.368751E-3,3.0517986E-2,-3.500148E-3,-5.9155035E-3,-6.507268E-2,7.2487414E-2,-8.969221E-2,-3.1531375E-2,-6.4205796E-2,1.621167E-2,-2.9566243E-2,1.0226732E-3,-1.147049E-2,3.7736723E-3,-0E0,4.1375455E-2,8.017447E-3,2.3320083E-2,-0E0,-2.9471299E-2,-7.770454E-2,-1.0007437E-3,1.4184953E-1,-1.8044012E-2,1.1844012E-2,6.489002E-3,-4.527694E-2,-2.953157E-3,4.8463825E-2,5.5539753E-2,1.3279139E-4,-3.0771429E-2,2.4930546E-2],"split_indices":[5,4,6,2,4,5,2,2,5,4,3,6,3,4,2,6,3,6,2,2,5,5,2,2,4,0,4,5,0,0,0,6,5,2,5,3,2,5,4,0,2,2,2,0,2,2,0,3,2,3,5,3,4,0,0,0,0,0,0,0,0,0,0,0,0,0,0,0,0,0,0,0,0,0,0,0,0,0,0,0,0,0,0,0,0,0,0,0,0,0,0,0,0],"split_type":[0,0,0,0,0,0,0,0,0,0,0,0,0,0,0,0,0,0,0,0,0,0,0,0,0,0,0,0,0,0,0,0,0,0,0,0,0,0,0,0,0,0,0,0,0,0,0,0,0,0,0,0,0,0,0,0,0,0,0,0,0,0,0,0,0,0,0,0,0,0,0,0,0,0,0,0,0,0,0,0,0,0,0,0,0,0,0,0,0,0,0,0,0],"sum_hessian":[6.68E2,2.99E2,3.69E2,2.29E2,7E1,3.52E2,1.7E1,3.9E1,1.9E2,5.3E1,1.7E1,2.7E2,8.2E1,1.5E1,2E0,1.9E1,2E1,6.1E1,1.29E2,